var DecisionTreeClassifier = function() {

    this.lChilds = [1, 3, 5, 7, 9, 11, 29, 19, 41, 13, 15, 25, 27, 47, 61, 17, 67, 33, 69, 21, 23, 205, 45, 157, 39, 55, 65, 31, 51, 85, 83, 99, 43, 59, 35, 71, 37, 131, 159, 109, 49, 53, 167, 219, 187, 63, 57, 195, 81, 125, 253, 127, 95, 103, 237, 107, -1, 105, 667, 115, 285, 75, -1, 91, -1, 123, 213, 97, 147, 133, 113, 73, 77, 141, 293, 89, 227, 233, 79, -1, 151, 135, 185, 175, 161, 87, 261, 507, 675, 215, 207, 265, 93, 117, 223, 121, 165, 173, 495, 101, 169, 869, 197, 155, 199, 139, 179, 129, 137, 111, 143, -1, -1, 119, 885, 249, 373, -1, 149, 203, -1, 347, 251, 785, 153, 659, 163, 231, 299, 287, 559, 259, 229, 181, 255, 283, 461, 367, 247, 211, 335, 183, 547, 145, 381, 297, -1, 225, -1, 409, 625, 371, 439, 441, 355, 193, 221, 243, -1, 379, 843, 241, -1, 191, 359, 201, 321, 171, -1, 361, 621, 217, 413, -1, 569, 177, -1, 459, 699, 333, 727, -1, 437, 327, 189, 349, 275, 317, 679, 385, 263, 607, -1, 425, 375, 295, 643, -1, 273, 339, 329, 553, 419, -1, 501, -1, 307, 209, -1, 451, 323, 357, -1, 341, -1, 757, 281, 291, 943, 289, 337, -1, 319, 825, -1, 305, -1, 617, -1, 481, 433, -1, 271, 245, 235, 623, 719, -1, 239, 257, 741, -1, -1, -1, -1, 269, 791, 377, 657, 309, -1, -1, 421, 597, -1, 315, 783, 345, 505, -1, 353, 401, 575, 521, 723, 267, 303, -1, 691, 279, -1, -1, 485, 613, 301, -1, 277, 369, 311, 827, 555, -1, 491, 763, -1, 331, 415, -1, 423, -1, 803, 561, 677, 325, -1, 717, 397, -1, -1, 981, 797, -1, 769, -1, 511, 351, 467, -1, 969, 649, 813, 313, 417, -1, 551, 645, 923, -1, 693, 587, 611, 429, 701, -1, 641, -1, 389, -1, 577, -1, 399, -1, 403, 779, -1, 591, 391, 535, 343, -1, 935, 393, 407, -1, -1, 445, -1, 529, -1, -1, 799, 583, 573, 877, 497, -1, 411, -1, 531, 815, -1, 363, 365, 619, -1, 681, 405, -1, -1, -1, -1, 721, 387, 469, 383, -1, 471, 663, 395, 533, 711, -1, -1, 427, -1, -1, -1, -1, 513, -1, 455, 927, -1, -1, 749, 525, -1, -1, 739, -1, 473, -1, -1, 987, -1, -1, -1, 747, -1, -1, -1, -1, 541, 671, -1, -1, -1, 903, 503, 703, -1, 527, 447, 707, -1, 449, -1, 725, 487, 431, -1, 961, -1, 435, 841, -1, -1, 601, -1, 585, 793, -1, 443, -1, 655, 599, 689, -1, -1, -1, 457, -1, 453, -1, 993, -1, 639, -1, -1, -1, -1, 823, 463, 465, -1, 879, -1, -1, -1, -1, -1, -1, 637, 475, 477, -1, 767, 627, 479, -1, -1, -1, 483, -1, 811, -1, 925, 489, -1, -1, -1, 493, -1, -1, -1, 937, -1, -1, 499, 543, -1, 605, 709, -1, 983, 953, -1, 509, -1, -1, 859, -1, 537, 515, -1, 517, 519, 873, 609, -1, -1, 661, 523, 849, -1, -1, -1, -1, 787, -1, -1, 761, 963, 545, -1, -1, -1, 539, -1, 897, -1, -1, 889, 917, -1, -1, -1, -1, 549, -1, 865, -1, -1, 871, 631, 557, -1, 945, -1, 665, 635, 567, 563, 565, 729, -1, -1, -1, 907, 571, -1, -1, 673, -1, -1, -1, -1, 579, 581, -1, -1, 941, 909, -1, -1, 839, 947, 967, 589, -1, -1, 593, 595, 629, 893, -1, -1, 651, -1, -1, -1, 603, 851, -1, -1, -1, -1, 807, -1, -1, 949, -1, 705, 615, -1, -1, 715, -1, -1, -1, -1, -1, -1, -1, -1, -1, -1, -1, -1, -1, -1, -1, 633, -1, -1, 957, 735, -1, 653, -1, -1, 861, -1, -1, -1, -1, 647, 819, -1, -1, -1, -1, -1, -1, 989, 901, -1, -1, -1, -1, -1, 991, -1, -1, -1, -1, -1, -1, 669, 817, -1, -1, 975, -1, -1, -1, -1, 759, -1, -1, -1, 683, 831, 685, -1, 687, -1, -1, -1, -1, -1, -1, -1, 695, -1, 697, -1, -1, -1, -1, -1, -1, -1, -1, -1, -1, -1, -1, 913, -1, -1, 713, -1, -1, -1, -1, -1, -1, -1, -1, 979, -1, -1, -1, -1, -1, -1, -1, 805, 731, -1, -1, 733, -1, 933, -1, 737, 899, -1, -1, -1, -1, 743, -1, 745, -1, -1, -1, -1, 751, -1, 755, 753, 777, -1, -1, -1, 789, -1, 875, -1, -1, -1, 765, -1, -1, -1, -1, 795, -1, 771, 775, 773, -1, -1, -1, -1, -1, -1, 781, -1, -1, -1, -1, -1, -1, -1, -1, -1, -1, 915, -1, -1, -1, -1, -1, -1, -1, -1, 801, -1, 857, -1, -1, -1, 921, -1, -1, 809, -1, -1, -1, -1, -1, 955, -1, -1, -1, -1, 821, -1, -1, -1, -1, 835, -1, -1, -1, 829, -1, -1, 895, 833, -1, -1, -1, 837, -1, 929, -1, -1, -1, -1, 845, -1, 847, 919, -1, 931, -1, 939, -1, 853, -1, 855, -1, -1, -1, -1, -1, -1, -1, 863, -1, -1, -1, 867, -1, -1, -1, -1, -1, -1, -1, -1, -1, -1, -1, 971, -1, 881, 883, -1, -1, -1, -1, 887, -1, -1, 891, 965, -1, -1, -1, -1, -1, -1, -1, -1, -1, -1, -1, -1, 905, -1, -1, -1, -1, 997, 911, -1, -1, -1, -1, -1, -1, -1, -1, -1, -1, -1, -1, -1, 995, -1, -1, -1, -1, -1, -1, -1, -1, -1, -1, -1, -1, -1, -1, -1, -1, -1, -1, -1, -1, -1, -1, -1, -1, -1, 951, -1, -1, -1, -1, -1, -1, -1, 959, -1, -1, -1, -1, -1, -1, -1, -1, -1, -1, -1, -1, -1, -1, 973, -1, -1, -1, 977, -1, -1, -1, -1, -1, -1, -1, 985, -1, -1, -1, -1, -1, -1, -1, -1, -1, -1, -1, -1, -1, -1];
    this.rChilds = [2, 4, 6, 8, 10, 12, 30, 20, 42, 14, 16, 26, 28, 48, 62, 18, 68, 34, 70, 22, 24, 206, 46, 158, 40, 56, 66, 32, 52, 86, 84, 100, 44, 60, 36, 72, 38, 132, 160, 110, 50, 54, 168, 220, 188, 64, 58, 196, 82, 126, 254, 128, 96, 104, 238, 108, -1, 106, 668, 116, 286, 76, -1, 92, -1, 124, 214, 98, 148, 134, 114, 74, 78, 142, 294, 90, 228, 234, 80, -1, 152, 136, 186, 176, 162, 88, 262, 508, 676, 216, 208, 266, 94, 118, 224, 122, 166, 174, 496, 102, 170, 870, 198, 156, 200, 140, 180, 130, 138, 112, 144, -1, -1, 120, 886, 250, 374, -1, 150, 204, -1, 348, 252, 786, 154, 660, 164, 232, 300, 288, 560, 260, 230, 182, 256, 284, 462, 368, 248, 212, 336, 184, 548, 146, 382, 298, -1, 226, -1, 410, 626, 372, 440, 442, 356, 194, 222, 244, -1, 380, 844, 242, -1, 192, 360, 202, 322, 172, -1, 362, 622, 218, 414, -1, 570, 178, -1, 460, 700, 334, 728, -1, 438, 328, 190, 350, 276, 318, 680, 386, 264, 608, -1, 426, 376, 296, 644, -1, 274, 340, 330, 554, 420, -1, 502, -1, 308, 210, -1, 452, 324, 358, -1, 342, -1, 758, 282, 292, 944, 290, 338, -1, 320, 826, -1, 306, -1, 618, -1, 482, 434, -1, 272, 246, 236, 624, 720, -1, 240, 258, 742, -1, -1, -1, -1, 270, 792, 378, 658, 310, -1, -1, 422, 598, -1, 316, 784, 346, 506, -1, 354, 402, 576, 522, 724, 268, 304, -1, 692, 280, -1, -1, 486, 614, 302, -1, 278, 370, 312, 828, 556, -1, 492, 764, -1, 332, 416, -1, 424, -1, 804, 562, 678, 326, -1, 718, 398, -1, -1, 982, 798, -1, 770, -1, 512, 352, 468, -1, 970, 650, 814, 314, 418, -1, 552, 646, 924, -1, 694, 588, 612, 430, 702, -1, 642, -1, 390, -1, 578, -1, 400, -1, 404, 780, -1, 592, 392, 536, 344, -1, 936, 394, 408, -1, -1, 446, -1, 530, -1, -1, 800, 584, 574, 878, 498, -1, 412, -1, 532, 816, -1, 364, 366, 620, -1, 682, 406, -1, -1, -1, -1, 722, 388, 470, 384, -1, 472, 664, 396, 534, 712, -1, -1, 428, -1, -1, -1, -1, 514, -1, 456, 928, -1, -1, 750, 526, -1, -1, 740, -1, 474, -1, -1, 988, -1, -1, -1, 748, -1, -1, -1, -1, 542, 672, -1, -1, -1, 904, 504, 704, -1, 528, 448, 708, -1, 450, -1, 726, 488, 432, -1, 962, -1, 436, 842, -1, -1, 602, -1, 586, 794, -1, 444, -1, 656, 600, 690, -1, -1, -1, 458, -1, 454, -1, 994, -1, 640, -1, -1, -1, -1, 824, 464, 466, -1, 880, -1, -1, -1, -1, -1, -1, 638, 476, 478, -1, 768, 628, 480, -1, -1, -1, 484, -1, 812, -1, 926, 490, -1, -1, -1, 494, -1, -1, -1, 938, -1, -1, 500, 544, -1, 606, 710, -1, 984, 954, -1, 510, -1, -1, 860, -1, 538, 516, -1, 518, 520, 874, 610, -1, -1, 662, 524, 850, -1, -1, -1, -1, 788, -1, -1, 762, 964, 546, -1, -1, -1, 540, -1, 898, -1, -1, 890, 918, -1, -1, -1, -1, 550, -1, 866, -1, -1, 872, 632, 558, -1, 946, -1, 666, 636, 568, 564, 566, 730, -1, -1, -1, 908, 572, -1, -1, 674, -1, -1, -1, -1, 580, 582, -1, -1, 942, 910, -1, -1, 840, 948, 968, 590, -1, -1, 594, 596, 630, 894, -1, -1, 652, -1, -1, -1, 604, 852, -1, -1, -1, -1, 808, -1, -1, 950, -1, 706, 616, -1, -1, 716, -1, -1, -1, -1, -1, -1, -1, -1, -1, -1, -1, -1, -1, -1, -1, 634, -1, -1, 958, 736, -1, 654, -1, -1, 862, -1, -1, -1, -1, 648, 820, -1, -1, -1, -1, -1, -1, 990, 902, -1, -1, -1, -1, -1, 992, -1, -1, -1, -1, -1, -1, 670, 818, -1, -1, 976, -1, -1, -1, -1, 760, -1, -1, -1, 684, 832, 686, -1, 688, -1, -1, -1, -1, -1, -1, -1, 696, -1, 698, -1, -1, -1, -1, -1, -1, -1, -1, -1, -1, -1, -1, 914, -1, -1, 714, -1, -1, -1, -1, -1, -1, -1, -1, 980, -1, -1, -1, -1, -1, -1, -1, 806, 732, -1, -1, 734, -1, 934, -1, 738, 900, -1, -1, -1, -1, 744, -1, 746, -1, -1, -1, -1, 752, -1, 756, 754, 778, -1, -1, -1, 790, -1, 876, -1, -1, -1, 766, -1, -1, -1, -1, 796, -1, 772, 776, 774, -1, -1, -1, -1, -1, -1, 782, -1, -1, -1, -1, -1, -1, -1, -1, -1, -1, 916, -1, -1, -1, -1, -1, -1, -1, -1, 802, -1, 858, -1, -1, -1, 922, -1, -1, 810, -1, -1, -1, -1, -1, 956, -1, -1, -1, -1, 822, -1, -1, -1, -1, 836, -1, -1, -1, 830, -1, -1, 896, 834, -1, -1, -1, 838, -1, 930, -1, -1, -1, -1, 846, -1, 848, 920, -1, 932, -1, 940, -1, 854, -1, 856, -1, -1, -1, -1, -1, -1, -1, 864, -1, -1, -1, 868, -1, -1, -1, -1, -1, -1, -1, -1, -1, -1, -1, 972, -1, 882, 884, -1, -1, -1, -1, 888, -1, -1, 892, 966, -1, -1, -1, -1, -1, -1, -1, -1, -1, -1, -1, -1, 906, -1, -1, -1, -1, 998, 912, -1, -1, -1, -1, -1, -1, -1, -1, -1, -1, -1, -1, -1, 996, -1, -1, -1, -1, -1, -1, -1, -1, -1, -1, -1, -1, -1, -1, -1, -1, -1, -1, -1, -1, -1, -1, -1, -1, -1, 952, -1, -1, -1, -1, -1, -1, -1, 960, -1, -1, -1, -1, -1, -1, -1, -1, -1, -1, -1, -1, -1, -1, 974, -1, -1, -1, 978, -1, -1, -1, -1, -1, -1, -1, 986, -1, -1, -1, -1, -1, -1, -1, -1, -1, -1, -1, -1, -1, -1];
    this.thresholds = [0.35465116798877716, 0.12209302186965942, 0.8313953578472137, 1.475788176059723, 1.0848708152770996, 1.1416687965393066, 1.1574082970619202, 0.08751978352665901, 1.5728946924209595, 0.08542046323418617, 0.22069410234689713, 0.16599058359861374, 2.9642767906188965, 0.9864973723888397, 0.37970709800720215, 2.431463837623596, 1.5158769488334656, 0.05659514665603638, 0.12821770459413528, 0.06395268440246582, 0.9843263328075409, 0.05932372994720936, 1.3627421855926514, 0.14970343559980392, 0.15544548630714417, 1.2297337651252747, 0.9464883804321289, 0.8411080837249756, 0.34024690091609955, 0.39209119975566864, 1.023943543434143, 1.2894673943519592, 1.5225353240966797, 1.2576220035552979, 2.156887412071228, 1.1746169328689575, 0.15819884836673737, 0.1382649466395378, 0.16888190805912018, 0.09403898939490318, 1.2979552745819092, 0.06365034356713295, 0.26556776463985443, 0.09998719394207001, 1.150327742099762, 0.19081860780715942, 0.08574481680989265, 0.5898860692977905, 0.06307627633213997, 0.09969980642199516, 0.09057328850030899, 3.7584205865859985, 3.2561047077178955, 0.5855546295642853, 0.15069304406642914, 0.9867039620876312, -2.0, 0.6979166567325592, 0.46548938751220703, 0.41388778388500214, 1.3145594000816345, 0.13133225589990616, -2.0, 0.0746089443564415, -2.0, 0.43750225007534027, 0.2033112347126007, 0.3087577819824219, 0.2865028381347656, 2.599815845489502, 2.6160157918930054, 0.07129795476794243, 0.16990436613559723, 0.5764562785625458, 0.09133505821228027, 0.9266850352287292, 0.290024995803833, 1.9735867381095886, 1.8258342742919922, -2.0, 0.1876438930630684, 0.48616255819797516, 1.0027008056640625, 1.5671111941337585, 2.346398115158081, 1.9218289852142334, 0.994319885969162, 0.7581522762775421, 1.0812299847602844, 0.1323770433664322, 0.10860775783658028, 0.09538238123059273, 0.12634500861167908, 1.2557180523872375, 1.1537837982177734, 0.419097900390625, 0.40428586304187775, 1.289182960987091, 0.32950855791568756, 0.6010825037956238, 0.5319767594337463, 0.18209797888994217, 0.12302578613162041, 1.523841142654419, 1.3421014547348022, 0.07036134600639343, 1.4252065420150757, 0.5135459303855896, 0.12886731326580048, 1.314551591873169, 1.2097835540771484, -2.0, -2.0, 0.14713671803474426, 0.4072919487953186, 0.7731543779373169, 0.05170849896967411, -2.0, 0.36979034543037415, 2.450653910636902, -2.0, 0.9271659851074219, 0.17454617470502853, 0.2102990448474884, 0.8345234394073486, 1.3929566740989685, 0.1922527253627777, 3.420061707496643, 0.3674975037574768, 0.09440028294920921, 0.0830719843506813, 0.1146644875407219, 2.274558663368225, 0.11390859633684158, 2.7370388507843018, 0.5907876193523407, 1.3930109739303589, 0.3449186831712723, 0.5234971046447754, 0.39824652671813965, 0.07243253290653229, 0.26308588683605194, 0.05794915184378624, 0.14376744627952576, 1.4117627143859863, 1.173270344734192, -2.0, 1.8131458163261414, -2.0, 0.039410630241036415, 0.9836613535881042, 1.9834416508674622, 2.05648410320282, 0.1623045727610588, 0.18051982671022415, 0.2717733532190323, 2.103841543197632, 0.11615730449557304, -2.0, 0.16263410449028015, 0.17838776856660843, 2.302147626876831, -2.0, 0.16101240366697311, 0.3365374803543091, 2.12978196144104, 0.43380147218704224, 1.627072274684906, -2.0, 0.11666464433073997, 2.6449896097183228, 0.06583211570978165, 2.431802749633789, -2.0, 0.30866116285324097, 0.29526732861995697, -2.0, 0.3963955044746399, 0.15737275779247284, 2.0789605379104614, 0.05682489089667797, -2.0, 0.3728445768356323, 0.0475727841258049, 1.408701479434967, 0.543786495923996, 0.12998037040233612, 1.5903028845787048, 0.1588675007224083, 0.2664768695831299, 0.07118448242545128, 1.3510833382606506, -2.0, 0.27925486862659454, 0.8659394979476929, 0.9446999132633209, 1.2128067016601562, -2.0, 1.1860978603363037, 0.05811196379363537, 0.05744846723973751, 3.4754258394241333, 3.4899470806121826, -2.0, 0.33667120337486267, -2.0, 0.9177280068397522, 1.027117371559143, -2.0, 0.4167409986257553, 0.04785247892141342, 1.44196617603302, -2.0, 1.044552743434906, -2.0, 0.5873709917068481, 0.6947517693042755, 0.6895390748977661, 0.1145833320915699, 1.4175681471824646, 0.46498389542102814, -2.0, 0.28275060653686523, 0.2811128795146942, -2.0, 2.197016954421997, -2.0, 0.8000646233558655, -2.0, 0.21672935038805008, 0.14508529752492905, -2.0, 0.326058492064476, 0.06536652892827988, 0.1534535363316536, 0.19003842025995255, 0.169892318546772, -2.0, 1.5151923894882202, 0.07394536957144737, 0.5311249196529388, -2.0, -2.0, -2.0, -2.0, 1.2930533289909363, 0.22674418985843658, 1.0518285632133484, 0.5858232975006104, 0.3011055439710617, -2.0, -2.0, 0.28679756820201874, 0.08879395946860313, -2.0, 0.12543288618326187, 0.10566572844982147, 2.2666335105895996, 0.09650403261184692, -2.0, 2.3154009580612183, 0.3674975037574768, 0.46400973200798035, 0.2648795396089554, 0.061238715425133705, 0.9375, 1.3398873209953308, -2.0, 0.7136270999908447, 0.5984750986099243, -2.0, -2.0, 0.3263608068227768, 0.18626844137907028, 0.22329391539096832, -2.0, 0.89478999376297, 1.047544002532959, 0.21875, 0.301924392580986, 0.31636661291122437, -2.0, 0.31306192278862, 0.061588017269968987, -2.0, 0.7213316559791565, 0.7940917313098907, -2.0, 0.15398146212100983, -2.0, 0.13586238771677017, 1.4980764985084534, 0.6354166567325592, 0.4749469608068466, -2.0, 0.5891064405441284, 0.07195146381855011, -2.0, -2.0, 0.3414522856473923, 0.28406503796577454, -2.0, 0.1355549767613411, -2.0, 0.16483376920223236, 0.25562217831611633, 0.11261087283492088, -2.0, 0.0600627064704895, 0.2961437553167343, 0.3052050471305847, 0.5416713356971741, 0.07022153586149216, -2.0, 0.5150335431098938, 0.09656862914562225, 0.292464941740036, -2.0, 0.09025610238313675, 1.5587197542190552, 0.27089425921440125, 0.41568849980831146, 1.4875764846801758, -2.0, 0.9180896580219269, -2.0, 0.47776007652282715, -2.0, 0.4960613250732422, -2.0, 0.20332835614681244, -2.0, 0.6583430171012878, 0.7255839407444, -2.0, 0.07171131297945976, 0.09522170573472977, 0.31595203280448914, 0.23670199513435364, -2.0, 0.059698302298784256, 0.4900798201560974, 0.5727064907550812, -2.0, -2.0, 0.5247369706630707, -2.0, 3.1633111238479614, -2.0, -2.0, 0.3963955044746399, 0.5742826759815216, 0.13365419209003448, 0.11470508202910423, 0.19171057641506195, -2.0, 0.3897230923175812, -2.0, 0.3610825389623642, 2.159575939178467, -2.0, 1.5545116066932678, 0.47424015402793884, 0.11634305119514465, -2.0, 1.470504105091095, 2.873031497001648, -2.0, -2.0, -2.0, -2.0, 0.20089511573314667, 0.1707279309630394, 0.053246909752488136, 1.2035046815872192, -2.0, 0.04912842996418476, 0.13236236572265625, 0.7333339154720306, 2.2602733373641968, 0.2444251999258995, -2.0, -2.0, 0.2928619980812073, -2.0, -2.0, -2.0, -2.0, 0.6726578176021576, -2.0, 0.1805645003914833, 0.5122395008802414, -2.0, -2.0, 0.7566779851913452, 0.5941480100154877, -2.0, -2.0, 0.6646103262901306, -2.0, 0.25335828959941864, -2.0, -2.0, 0.9848859906196594, -2.0, -2.0, -2.0, 2.3751800060272217, -2.0, -2.0, -2.0, -2.0, 0.17020409554243088, 0.5850560069084167, -2.0, -2.0, -2.0, 0.2544869929552078, 0.4466528594493866, 0.3943759799003601, -2.0, 0.4111192375421524, 0.13507063686847687, 0.5594889521598816, -2.0, 0.6307785212993622, -2.0, 0.051558494567871094, 0.0945226363837719, 3.481256127357483, -2.0, 0.17462502419948578, -2.0, 0.353628009557724, 0.1359349936246872, -2.0, -2.0, 0.12249521911144257, -2.0, 0.15567949414253235, 0.19286521524190903, -2.0, 0.18864191323518753, -2.0, 0.19356058537960052, 0.5563802719116211, 0.18034013360738754, -2.0, -2.0, -2.0, 1.4946938753128052, -2.0, 0.5376394987106323, -2.0, 2.170304536819458, -2.0, 0.49661286175251007, -2.0, -2.0, -2.0, -2.0, 0.9994301497936249, 0.0647873654961586, 0.6151677966117859, -2.0, 1.0245915055274963, -2.0, -2.0, -2.0, -2.0, -2.0, -2.0, 0.24973107874393463, 0.2560375928878784, 0.2585746794939041, -2.0, 0.1928793340921402, 0.6494331359863281, 0.2238427698612213, -2.0, -2.0, -2.0, 0.13833798468112946, -2.0, 0.18213369697332382, -2.0, 1.49873948097229, 0.2604166716337204, -2.0, -2.0, -2.0, 0.10973979160189629, -2.0, -2.0, -2.0, 0.25129827857017517, -2.0, -2.0, 0.22288387268781662, 0.3045088052749634, -2.0, 1.587271511554718, 0.266496017575264, -2.0, 0.3940724581480026, 0.2989155054092407, -2.0, 0.8839589357376099, -2.0, -2.0, 0.5066166669130325, -2.0, 0.2772381007671356, 0.18225408345460892, -2.0, 0.17112908512353897, 0.5122395008802414, 2.1068609952926636, 0.18610703200101852, -2.0, -2.0, 0.2721129357814789, 1.1258431673049927, 0.5668376386165619, -2.0, -2.0, -2.0, -2.0, 0.16620449721813202, -2.0, -2.0, 0.2574131190776825, 0.3209756165742874, 0.6182444989681244, -2.0, -2.0, -2.0, 0.06992867216467857, -2.0, 0.26575490832328796, -2.0, -2.0, 0.9000628292560577, 2.3379989862442017, -2.0, -2.0, -2.0, -2.0, 0.24250082671642303, -2.0, 0.5855939984321594, -2.0, -2.0, 0.3972363620996475, 0.20754272490739822, 0.26563650369644165, -2.0, 0.623722493648529, -2.0, 0.4002009928226471, 0.14321715384721756, 0.3876042515039444, 0.27257239818573, 0.057378824800252914, 0.33971191942691803, -2.0, -2.0, -2.0, 0.0651073269546032, 0.625, -2.0, -2.0, 0.2530371695756912, -2.0, -2.0, -2.0, -2.0, 0.5007307380437851, 1.0913116931915283, -2.0, -2.0, 1.0866166353225708, 0.6114073395729065, -2.0, -2.0, 0.5811965465545654, 0.19067051261663437, 0.055922750383615494, 0.0638539306819439, -2.0, -2.0, 0.06450678035616875, 0.4875422865152359, 0.07855053246021271, 0.17975124716758728, -2.0, -2.0, 0.08666906133294106, -2.0, -2.0, -2.0, 0.33911266922950745, 0.09636534377932549, -2.0, -2.0, -2.0, -2.0, 0.10829152539372444, -2.0, -2.0, 0.2224907949566841, -2.0, 0.05413145385682583, 0.13104524463415146, -2.0, -2.0, 0.15747223049402237, -2.0, -2.0, -2.0, -2.0, -2.0, -2.0, -2.0, -2.0, -2.0, -2.0, -2.0, -2.0, -2.0, -2.0, -2.0, 0.3083326667547226, -2.0, -2.0, 1.8576868772506714, 0.9067312479019165, -2.0, 0.2733675390481949, -2.0, -2.0, 0.08647850528359413, -2.0, -2.0, -2.0, -2.0, 0.38497358560562134, 0.11898008361458778, -2.0, -2.0, -2.0, -2.0, -2.0, -2.0, 0.5767718553543091, 0.8191561102867126, -2.0, -2.0, -2.0, -2.0, -2.0, 0.062852393835783, -2.0, -2.0, -2.0, -2.0, -2.0, -2.0, 1.3786382675170898, 0.4336683452129364, -2.0, -2.0, 0.1495100036263466, -2.0, -2.0, -2.0, -2.0, 1.549209475517273, -2.0, -2.0, -2.0, 0.14488131552934647, 2.7520954608917236, 0.11104932427406311, -2.0, 0.19745993614196777, -2.0, -2.0, -2.0, -2.0, -2.0, -2.0, -2.0, 0.6572106182575226, -2.0, 0.3983544260263443, -2.0, -2.0, -2.0, -2.0, -2.0, -2.0, -2.0, -2.0, -2.0, -2.0, -2.0, -2.0, 0.6534735262393951, -2.0, -2.0, 0.2162575200200081, -2.0, -2.0, -2.0, -2.0, -2.0, -2.0, -2.0, -2.0, 0.17362258583307266, -2.0, -2.0, -2.0, -2.0, -2.0, -2.0, -2.0, 0.5324808657169342, 0.2522357553243637, -2.0, -2.0, 0.05816948041319847, -2.0, 1.6022834777832031, -2.0, 0.16206149756908417, 0.7025065124034882, -2.0, -2.0, -2.0, -2.0, 0.9571124911308289, -2.0, 0.3541666716337204, -2.0, -2.0, -2.0, -2.0, 0.1458333358168602, -2.0, 0.1823078989982605, 0.1800961047410965, 0.17012736946344376, -2.0, -2.0, -2.0, 0.10983481258153915, -2.0, 0.6277724802494049, -2.0, -2.0, -2.0, 2.1790465116500854, -2.0, -2.0, -2.0, -2.0, 0.06104511395096779, -2.0, 0.6130745708942413, 0.08024667948484421, 0.13802538067102432, -2.0, -2.0, -2.0, -2.0, -2.0, -2.0, 0.058896878734230995, -2.0, -2.0, -2.0, -2.0, -2.0, -2.0, -2.0, -2.0, -2.0, -2.0, 0.8663125038146973, -2.0, -2.0, -2.0, -2.0, -2.0, -2.0, -2.0, -2.0, 0.4783584773540497, -2.0, 0.20926100760698318, -2.0, -2.0, -2.0, 0.27405810356140137, -2.0, -2.0, 0.8359965682029724, -2.0, -2.0, -2.0, -2.0, -2.0, 1.2320455312728882, -2.0, -2.0, -2.0, -2.0, 0.2887133061885834, -2.0, -2.0, -2.0, -2.0, 0.058025775477290154, -2.0, -2.0, -2.0, 0.5347904860973358, -2.0, -2.0, 0.546511635184288, 0.9966257512569427, -2.0, -2.0, -2.0, 0.06071133725345135, -2.0, 0.05850744806230068, -2.0, -2.0, -2.0, -2.0, 2.264895796775818, -2.0, 1.4601799845695496, 0.1971064880490303, -2.0, 0.22667748481035233, -2.0, 0.05916113965213299, -2.0, 0.16620449721813202, -2.0, 2.5739858150482178, -2.0, -2.0, -2.0, -2.0, -2.0, -2.0, -2.0, 0.30555039644241333, -2.0, -2.0, -2.0, 0.6273178160190582, -2.0, -2.0, -2.0, -2.0, -2.0, -2.0, -2.0, -2.0, -2.0, -2.0, -2.0, 0.4774622619152069, -2.0, 0.24782538414001465, 0.6519631147384644, -2.0, -2.0, -2.0, -2.0, 0.1291244477033615, -2.0, -2.0, 0.8841750621795654, 0.1779494658112526, -2.0, -2.0, -2.0, -2.0, -2.0, -2.0, -2.0, -2.0, -2.0, -2.0, -2.0, -2.0, 0.27563129365444183, -2.0, -2.0, -2.0, -2.0, 0.06380196660757065, 0.4479166716337204, -2.0, -2.0, -2.0, -2.0, -2.0, -2.0, -2.0, -2.0, -2.0, -2.0, -2.0, -2.0, -2.0, 0.30021993815898895, -2.0, -2.0, -2.0, -2.0, -2.0, -2.0, -2.0, -2.0, -2.0, -2.0, -2.0, -2.0, -2.0, -2.0, -2.0, -2.0, -2.0, -2.0, -2.0, -2.0, -2.0, -2.0, -2.0, -2.0, -2.0, 0.18590892106294632, -2.0, -2.0, -2.0, -2.0, -2.0, -2.0, -2.0, 1.529724359512329, -2.0, -2.0, -2.0, -2.0, -2.0, -2.0, -2.0, -2.0, -2.0, -2.0, -2.0, -2.0, -2.0, -2.0, 2.1877883672714233, -2.0, -2.0, -2.0, 0.06049671582877636, -2.0, -2.0, -2.0, -2.0, -2.0, -2.0, -2.0, 0.375, -2.0, -2.0, -2.0, -2.0, -2.0, -2.0, -2.0, -2.0, -2.0, -2.0, -2.0, -2.0, -2.0, -2.0];
    this.indices = [0, 0, 0, 1, 1, 1, 1, 7, 1, 9, 9, 9, 1, 1, 8, 1, 1, 9, 9, 17, 1, 17, 1, 9, 15, 17, 1, 17, 9, 9, 17, 1, 1, 1, 1, 1, 8, 9, 5, 9, 1, 9, 8, 9, 17, 8, 9, 17, 9, 9, 9, 1, 1, 13, 17, 1, -2, 24, 15, 10, 1, 9, -2, 6, -2, 17, 9, 9, 9, 1, 1, 9, 8, 12, 9, 1, 7, 1, 1, -2, 9, 10, 1, 1, 1, 17, 1, 17, 1, 5, 6, 17, 9, 1, 1, 8, 8, 1, 9, 17, 6, 9, 9, 1, 22, 9, 1, 1, 9, 1, 1, -2, -2, 9, 12, 17, 8, -2, 13, 1, -2, 21, 14, 9, 1, 16, 2, 1, 19, 9, 9, 9, 1, 9, 1, 17, 22, 3, 10, 2, 7, 13, 7, 9, 13, 1, -2, 1, -2, 7, 11, 1, 1, 8, 9, 15, 23, 17, -2, 5, 9, 17, -2, 9, 6, 23, 9, 1, -2, 9, 1, 9, 1, -2, 4, 9, -2, 19, 4, 23, 9, -2, 17, 2, 22, 20, 14, 1, 18, 13, 8, 16, -2, 17, 21, 1, 15, -2, 1, 7, 5, 1, 1, -2, 11, -2, 21, 1, -2, 13, 5, 1, -2, 1, -2, 20, 1, 13, 24, 17, 10, -2, 14, 10, -2, 23, -2, 10, -2, 12, 8, -2, 19, 9, 8, 9, 5, -2, 1, 4, 13, -2, -2, -2, -2, 1, 0, 1, 12, 15, -2, -2, 13, 6, -2, 8, 9, 23, 7, -2, 1, 19, 12, 15, 6, 24, 1, -2, 1, 12, -2, -2, 9, 5, 11, -2, 21, 1, 24, 13, 11, -2, 6, 7, -2, 17, 13, -2, 7, -2, 4, 22, 24, 13, -2, 17, 2, -2, -2, 8, 9, -2, 7, -2, 16, 9, 7, -2, 17, 10, 11, 17, 6, -2, 15, 2, 15, -2, 9, 1, 15, 19, 22, -2, 12, -2, 13, -2, 17, -2, 11, -2, 12, 15, -2, 7, 2, 3, 13, -2, 5, 13, 17, -2, -2, 11, -2, 1, -2, -2, 19, 14, 16, 9, 15, -2, 10, -2, 17, 23, -2, 1, 9, 3, -2, 1, 1, -2, -2, -2, -2, 3, 9, 3, 1, -2, 5, 8, 13, 1, 16, -2, -2, 11, -2, -2, -2, -2, 11, -2, 18, 20, -2, -2, 11, 17, -2, -2, 15, -2, 14, -2, -2, 21, -2, -2, -2, 23, -2, -2, -2, -2, 6, 13, -2, -2, -2, 12, 13, 8, -2, 3, 2, 11, -2, 20, -2, 7, 4, 1, -2, 15, -2, 15, 2, -2, -2, 8, -2, 18, 4, -2, 9, -2, 9, 12, 17, -2, -2, -2, 1, -2, 20, -2, 23, -2, 13, -2, -2, -2, -2, 1, 3, 15, -2, 1, -2, -2, -2, -2, -2, -2, 17, 15, 12, -2, 14, 14, 15, -2, -2, -2, 9, -2, 15, -2, 22, 24, -2, -2, -2, 9, -2, -2, -2, 10, -2, -2, 10, 17, -2, 22, 17, -2, 15, 2, -2, 1, -2, -2, 15, -2, 13, 6, -2, 5, 20, 23, 17, -2, -2, 12, 1, 17, -2, -2, -2, -2, 18, -2, -2, 12, 14, 20, -2, -2, -2, 3, -2, 13, -2, -2, 1, 1, -2, -2, -2, -2, 16, -2, 20, -2, -2, 7, 14, 16, -2, 20, -2, 19, 9, 14, 11, 4, 16, -2, -2, -2, 5, 24, -2, -2, 9, -2, -2, -2, -2, 11, 1, -2, -2, 1, 14, -2, -2, 10, 6, 8, 2, -2, -2, 3, 12, 8, 16, -2, -2, 6, -2, -2, -2, 17, 2, -2, -2, -2, -2, 9, -2, -2, 12, -2, 2, 5, -2, -2, 9, -2, -2, -2, -2, -2, -2, -2, -2, -2, -2, -2, -2, -2, -2, -2, 5, -2, -2, 15, 1, -2, 14, -2, -2, 8, -2, -2, -2, -2, 13, 9, -2, -2, -2, -2, -2, -2, 12, 1, -2, -2, -2, -2, -2, 7, -2, -2, -2, -2, -2, -2, 1, 10, -2, -2, 18, -2, -2, -2, -2, 22, -2, -2, -2, 9, 1, 2, -2, 11, -2, -2, -2, -2, -2, -2, -2, 16, -2, 12, -2, -2, -2, -2, -2, -2, -2, -2, -2, -2, -2, -2, 20, -2, -2, 11, -2, -2, -2, -2, -2, -2, -2, -2, 9, -2, -2, -2, -2, -2, -2, -2, 13, 17, -2, -2, 4, -2, 1, -2, 7, 11, -2, -2, -2, -2, 21, -2, 24, -2, -2, -2, -2, 24, -2, 3, 9, 6, -2, -2, -2, 8, -2, 12, -2, -2, -2, 23, -2, -2, -2, -2, 2, -2, 15, 2, 7, -2, -2, -2, -2, -2, -2, 7, -2, -2, -2, -2, -2, -2, -2, -2, -2, -2, 21, -2, -2, -2, -2, -2, -2, -2, -2, 12, -2, 11, -2, -2, -2, 12, -2, -2, 15, -2, -2, -2, -2, -2, 1, -2, -2, -2, -2, 11, -2, -2, -2, -2, 2, -2, -2, -2, 17, -2, -2, 0, 10, -2, -2, -2, 3, -2, 6, -2, -2, -2, -2, 1, -2, 22, 12, -2, 13, -2, 2, -2, 18, -2, 1, -2, -2, -2, -2, -2, -2, -2, 14, -2, -2, -2, 12, -2, -2, -2, -2, -2, -2, -2, -2, -2, -2, -2, 14, -2, 14, 16, -2, -2, -2, -2, 7, -2, -2, 1, 5, -2, -2, -2, -2, -2, -2, -2, -2, -2, -2, -2, -2, 13, -2, -2, -2, -2, 9, 24, -2, -2, -2, -2, -2, -2, -2, -2, -2, -2, -2, -2, -2, 12, -2, -2, -2, -2, -2, -2, -2, -2, -2, -2, -2, -2, -2, -2, -2, -2, -2, -2, -2, -2, -2, -2, -2, -2, -2, 4, -2, -2, -2, -2, -2, -2, -2, 16, -2, -2, -2, -2, -2, -2, -2, -2, -2, -2, -2, -2, -2, -2, 1, -2, -2, -2, 9, -2, -2, -2, -2, -2, -2, -2, 24, -2, -2, -2, -2, -2, -2, -2, -2, -2, -2, -2, -2, -2, -2];
    this.classes = [[35853, 73200, 307, 41741, 50, 8849], [35576, 70383, 74, 5196, 0, 0], [277, 2817, 233, 36545, 50, 8849], [30132, 8264, 0, 33, 0, 0], [5444, 62119, 74, 5163, 0, 0], [207, 2817, 227, 36014, 33, 1178], [70, 0, 6, 531, 17, 7671], [28352, 3913, 0, 8, 0, 0], [1780, 4351, 0, 25, 0, 0], [4133, 3344, 1, 228, 0, 0], [1311, 58775, 73, 4935, 0, 0], [197, 1973, 45, 1778, 0, 0], [10, 844, 182, 34236, 33, 1178], [3741, 974, 0, 0, 0, 0], [392, 2370, 1, 228, 0, 0], [1311, 58241, 61, 3750, 0, 0], [0, 534, 12, 1185, 0, 0], [1311, 56472, 45, 2130, 0, 0], [0, 1769, 16, 1620, 0, 0], [25939, 1933, 0, 1, 0, 0], [2413, 1980, 0, 7, 0, 0], [44, 477, 0, 0, 0, 0], [25895, 1456, 0, 1, 0, 0], [1424, 98, 0, 0, 0, 0], [989, 1882, 0, 7, 0, 0], [197, 1434, 20, 340, 0, 0], [0, 539, 25, 1438, 0, 0], [10, 844, 182, 31454, 22, 159], [0, 0, 0, 2782, 11, 1019], [61, 0, 6, 335, 6, 198], [9, 0, 0, 196, 11, 7473], [0, 396, 159, 30808, 22, 159], [10, 448, 23, 646, 0, 0], [492, 840, 0, 1, 0, 0], [819, 55632, 45, 2129, 0, 0], [819, 49684, 27, 847, 0, 0], [0, 5948, 18, 1282, 0, 0], [0, 5621, 18, 742, 0, 0], [0, 327, 0, 540, 0, 0], [293, 1447, 0, 0, 0, 0], [696, 435, 0, 7, 0, 0], [1416, 1985, 0, 3, 0, 0], [364, 2366, 0, 22, 0, 0], [10, 366, 6, 87, 0, 0], [0, 82, 17, 559, 0, 0], [22893, 626, 0, 1, 0, 0], [3002, 830, 0, 0, 0, 0], [2391, 179, 0, 0, 0, 0], [1350, 795, 0, 0, 0, 0], [632, 149, 0, 7, 0, 0], [64, 286, 0, 0, 0, 0], [0, 0, 0, 1579, 7, 173], [0, 0, 0, 1203, 4, 846], [1186, 1035, 0, 2, 0, 0], [230, 950, 0, 1, 0, 0], [61, 1421, 20, 339, 0, 0], [136, 13, 0, 1, 0, 0], [2970, 659, 0, 0, 0, 0], [32, 171, 0, 0, 0, 0], [426, 278, 0, 0, 0, 0], [66, 562, 0, 1, 0, 0], [392, 2307, 1, 70, 0, 0], [0, 63, 0, 158, 0, 0], [22868, 521, 0, 1, 0, 0], [25, 105, 0, 0, 0, 0], [0, 363, 9, 305, 0, 0], [0, 176, 16, 1133, 0, 0], [0, 382, 1, 328, 0, 0], [0, 152, 11, 857, 0, 0], [0, 1100, 10, 576, 0, 0], [0, 669, 6, 1044, 0, 0], [550, 3444, 0, 0, 0, 0], [269, 46240, 27, 847, 0, 0], [366, 709, 0, 0, 0, 0], [184, 2735, 0, 0, 0, 0], [358, 836, 0, 0, 0, 0], [34, 1471, 1, 70, 0, 0], [269, 43024, 18, 386, 0, 0], [0, 3216, 9, 461, 0, 0], [0, 2317, 2, 72, 0, 0], [0, 899, 7, 389, 0, 0], [836, 249, 0, 0, 0, 0], [514, 546, 0, 0, 0, 0], [0, 0, 0, 129, 10, 7434], [9, 0, 0, 67, 1, 39], [61, 0, 6, 252, 2, 29], [0, 0, 0, 83, 4, 169], [2, 0, 6, 247, 2, 29], [59, 0, 0, 5, 0, 0], [158, 89, 0, 0, 0, 0], [200, 747, 0, 0, 0, 0], [21647, 266, 0, 1, 0, 0], [1221, 255, 0, 0, 0, 0], [1193, 177, 0, 0, 0, 0], [28, 78, 0, 0, 0, 0], [0, 0, 0, 804, 4, 342], [0, 0, 0, 399, 0, 504], [0, 331, 0, 154, 0, 0], [0, 51, 1, 174, 0, 0], [0, 252, 33, 1884, 0, 0], [0, 144, 126, 28924, 22, 159], [0, 55, 22, 1514, 0, 0], [0, 197, 11, 370, 0, 0], [598, 741, 0, 2, 0, 0], [588, 294, 0, 0, 0, 0], [2506, 409, 0, 0, 0, 0], [464, 250, 0, 0, 0, 0], [60, 846, 6, 66, 0, 0], [1, 575, 14, 273, 0, 0], [104, 116, 0, 0, 0, 0], [189, 1331, 0, 0, 0, 0], [96, 25, 0, 0, 0, 0], [8, 91, 0, 0, 0, 0], [0, 622, 5, 771, 0, 0], [0, 47, 1, 273, 0, 0], [328, 113, 0, 0, 0, 0], [98, 165, 0, 0, 0, 0], [897, 40, 0, 0, 0, 0], [296, 137, 0, 0, 0, 0], [0, 580, 4, 572, 0, 0], [0, 42, 1, 199, 0, 0], [0, 0, 0, 603, 4, 156], [0, 0, 0, 201, 0, 186], [0, 7, 0, 74, 0, 0], [0, 356, 9, 231, 0, 0], [431, 29, 0, 0, 0, 0], [201, 120, 0, 7, 0, 0], [0, 0, 0, 1529, 7, 121], [0, 0, 0, 50, 0, 52], [43, 35, 0, 0, 0, 0], [17, 811, 6, 66, 0, 0], [0, 4419, 13, 423, 0, 0], [0, 1202, 5, 319, 0, 0], [0, 881, 9, 347, 0, 0], [0, 219, 1, 229, 0, 0], [570, 84, 0, 0, 0, 0], [266, 165, 0, 0, 0, 0], [1, 276, 5, 45, 0, 0], [0, 299, 9, 228, 0, 0], [2251, 281, 0, 0, 0, 0], [255, 128, 0, 0, 0, 0], [274, 661, 0, 0, 0, 0], [92, 48, 0, 0, 0, 0], [167, 576, 0, 0, 0, 0], [22, 755, 0, 0, 0, 0], [152, 251, 0, 0, 0, 0], [15, 325, 0, 0, 0, 0], [0, 113, 2, 254, 0, 0], [0, 39, 9, 603, 0, 0], [102, 102, 0, 0, 0, 0], [194, 35, 0, 0, 0, 0], [0, 650, 4, 193, 0, 0], [0, 249, 3, 196, 0, 0], [0, 184, 4, 49, 0, 0], [0, 172, 5, 182, 0, 0], [361, 303, 0, 2, 0, 0], [237, 438, 0, 0, 0, 0], [1422, 82, 0, 0, 0, 0], [2, 16, 0, 0, 0, 0], [0, 201, 0, 196, 0, 0], [0, 126, 0, 344, 0, 0], [9, 0, 0, 66, 1, 13], [0, 0, 0, 1, 0, 26], [191, 77, 0, 0, 0, 0], [10, 43, 0, 7, 0, 0], [0, 0, 0, 270, 0, 223], [0, 0, 0, 129, 0, 281], [364, 2361, 0, 4, 0, 0], [0, 5, 0, 18, 0, 0], [0, 144, 126, 28908, 22, 138], [0, 0, 0, 16, 0, 21], [281, 1155, 0, 0, 0, 0], [83, 1206, 0, 4, 0, 0], [0, 157, 0, 21, 0, 0], [0, 174, 0, 133, 0, 0], [0, 0, 0, 99, 10, 704], [0, 0, 0, 30, 0, 6730], [0, 0, 0, 55, 3, 32], [0, 0, 0, 44, 7, 672], [300, 95, 0, 0, 0, 0], [164, 155, 0, 0, 0, 0], [0, 459, 3, 102, 0, 0], [0, 422, 6, 245, 0, 0], [113, 437, 0, 0, 0, 0], [161, 224, 0, 0, 0, 0], [113, 44, 0, 0, 0, 0], [401, 502, 0, 0, 0, 0], [0, 63, 16, 553, 0, 0], [0, 19, 1, 6, 0, 0], [26, 107, 0, 0, 0, 0], [135, 117, 0, 0, 0, 0], [191, 59, 0, 0, 0, 0], [0, 18, 0, 0, 0, 0], [97, 152, 0, 0, 0, 0], [264, 151, 0, 2, 0, 0], [717, 131, 0, 0, 0, 0], [1674, 48, 0, 0, 0, 0], [0, 65, 0, 41, 0, 0], [0, 132, 11, 329, 0, 0], [79, 92, 0, 0, 0, 0], [509, 202, 0, 0, 0, 0], [0, 0, 0, 92, 0, 136], [0, 0, 0, 178, 0, 87], [0, 109, 0, 41, 0, 0], [0, 471, 4, 531, 0, 0], [8, 406, 0, 0, 0, 0], [36, 71, 0, 0, 0, 0], [183, 491, 0, 0, 0, 0], [17, 256, 0, 0, 0, 0], [113, 160, 0, 0, 0, 0], [70, 331, 0, 0, 0, 0], [2242, 263, 0, 0, 0, 0], [9, 18, 0, 0, 0, 0], [0, 171, 14, 757, 0, 0], [0, 5, 2, 376, 0, 0], [84, 13, 0, 0, 0, 0], [74, 76, 0, 0, 0, 0], [261, 840, 0, 0, 0, 0], [20, 315, 0, 0, 0, 0], [10, 207, 1, 11, 0, 0], [0, 159, 5, 76, 0, 0], [32, 150, 0, 0, 0, 0], [205, 288, 0, 0, 0, 0], [23, 13, 0, 0, 0, 0], [5, 65, 0, 0, 0, 0], [0, 99, 2, 141, 0, 0], [0, 14, 0, 113, 0, 0], [34, 1367, 0, 31, 0, 0], [0, 104, 1, 39, 0, 0], [0, 630, 4, 100, 0, 0], [0, 572, 1, 219, 0, 0], [0, 0, 0, 1235, 2, 51], [0, 0, 0, 294, 5, 70], [269, 37979, 15, 146, 0, 0], [0, 5045, 3, 240, 0, 0], [0, 4788, 2, 176, 0, 0], [0, 257, 1, 64, 0, 0], [2, 173, 0, 0, 0, 0], [228, 777, 0, 1, 0, 0], [135, 267, 0, 1, 0, 0], [93, 510, 0, 0, 0, 0], [0, 0, 0, 66, 1, 13], [9, 0, 0, 0, 0, 0], [373, 70, 0, 0, 0, 0], [1049, 12, 0, 0, 0, 0], [174, 3197, 0, 0, 0, 0], [95, 34782, 15, 146, 0, 0], [0, 287, 7, 187, 0, 0], [0, 12, 2, 41, 0, 0], [209, 105, 0, 0, 0, 0], [119, 8, 0, 0, 0, 0], [0, 0, 0, 4, 0, 32], [0, 0, 0, 197, 0, 154], [45, 76, 0, 0, 0, 0], [19, 210, 0, 0, 0, 0], [0, 211, 1, 185, 0, 0], [0, 8, 0, 44, 0, 0], [102, 126, 0, 1, 0, 0], [33, 141, 0, 0, 0, 0], [0, 2344, 4, 128, 0, 0], [0, 2075, 9, 295, 0, 0], [0, 0, 0, 52, 0, 45], [0, 0, 0, 31, 4, 124], [131, 88, 0, 0, 0, 0], [4, 29, 0, 0, 0, 0], [445, 63, 0, 0, 0, 0], [21202, 203, 0, 1, 0, 0], [3, 17, 0, 0, 0, 0], [442, 46, 0, 0, 0, 0], [135, 1103, 0, 0, 0, 0], [39, 2094, 0, 0, 0, 0], [0, 0, 0, 27, 0, 28], [0, 0, 0, 267, 5, 42], [0, 58, 4, 62, 0, 0], [0, 74, 7, 267, 0, 0], [26, 3, 0, 0, 0, 0], [375, 499, 0, 0, 0, 0], [89, 203, 0, 0, 0, 0], [286, 296, 0, 0, 0, 0], [96, 1021, 0, 0, 0, 0], [39, 82, 0, 0, 0, 0], [33, 7, 0, 0, 0, 0], [41, 69, 0, 0, 0, 0], [50, 31, 0, 0, 0, 0], [520, 53, 0, 0, 0, 0], [51, 160, 0, 0, 0, 0], [15, 402, 0, 1, 0, 0], [31, 6, 0, 0, 0, 0], [12, 29, 0, 0, 0, 0], [0, 202, 1, 11, 0, 0], [10, 5, 0, 0, 0, 0], [219, 795, 0, 0, 0, 0], [42, 45, 0, 0, 0, 0], [146, 1153, 0, 0, 0, 0], [38, 1582, 0, 0, 0, 0], [465, 45, 0, 0, 0, 0], [252, 86, 0, 0, 0, 0], [84, 77, 0, 0, 0, 0], [68, 174, 0, 0, 0, 0], [0, 0, 0, 8, 0, 32], [0, 0, 0, 42, 0, 20], [0, 16, 0, 7, 0, 0], [0, 58, 7, 260, 0, 0], [20385, 126, 0, 1, 0, 0], [817, 77, 0, 0, 0, 0], [0, 58, 2, 121, 0, 0], [0, 41, 0, 20, 0, 0], [1, 36, 0, 0, 0, 0], [35, 35, 0, 0, 0, 0], [151, 46, 0, 0, 0, 0], [58, 59, 0, 0, 0, 0], [107, 60, 0, 0, 0, 0], [179, 236, 0, 0, 0, 0], [89, 28, 0, 0, 0, 0], [18, 32, 0, 0, 0, 0], [0, 179, 1, 121, 0, 0], [0, 32, 0, 64, 0, 0], [0, 26, 4, 52, 0, 0], [0, 37, 12, 501, 0, 0], [67, 153, 0, 0, 0, 0], [138, 135, 0, 0, 0, 0], [0, 0, 0, 118, 0, 197], [0, 0, 0, 11, 0, 84], [7, 0, 0, 0, 0, 0], [63, 331, 0, 0, 0, 0], [92, 990, 0, 0, 0, 0], [54, 163, 0, 0, 0, 0], [10, 2, 0, 0, 0, 0], [103, 435, 0, 0, 0, 0], [177, 33, 0, 0, 0, 0], [332, 169, 0, 0, 0, 0], [11, 100, 0, 0, 0, 0], [40, 60, 0, 0, 0, 0], [58, 43, 0, 0, 0, 0], [242, 52, 0, 0, 0, 0], [138, 100, 0, 0, 0, 0], [117, 28, 0, 0, 0, 0], [0, 145, 4, 51, 0, 0], [0, 14, 1, 25, 0, 0], [49, 27, 0, 0, 0, 0], [30, 65, 0, 0, 0, 0], [0, 124, 6, 369, 0, 0], [0, 47, 8, 388, 0, 0], [0, 10, 0, 1, 0, 0], [0, 4, 1, 24, 0, 0], [73, 117, 0, 1, 0, 0], [29, 9, 0, 0, 0, 0], [0, 0, 0, 272, 3, 107], [0, 0, 0, 331, 1, 49], [5, 14, 0, 0, 0, 0], [108, 30, 0, 0, 0, 0], [0, 33, 2, 28, 0, 0], [0, 25, 0, 93, 0, 0], [0, 1313, 2, 131, 0, 0], [0, 762, 7, 164, 0, 0], [0, 60, 2, 28, 0, 0], [0, 112, 3, 154, 0, 0], [1611, 135, 0, 0, 0, 0], [631, 128, 0, 0, 0, 0], [10, 42, 0, 0, 0, 0], [0, 1, 0, 7, 0, 0], [0, 34, 12, 283, 0, 0], [0, 110, 114, 28625, 22, 138], [0, 23, 4, 43, 0, 0], [0, 11, 8, 240, 0, 0], [0, 110, 114, 28455, 21, 107], [0, 0, 0, 170, 1, 31], [1, 275, 2, 39, 0, 0], [0, 1, 3, 6, 0, 0], [62, 83, 0, 0, 0, 0], [27, 120, 0, 0, 0, 0], [0, 363, 1, 69, 0, 0], [0, 287, 3, 124, 0, 0], [36, 23, 0, 0, 0, 0], [62, 142, 0, 0, 0, 0], [15, 29, 0, 0, 0, 0], [249, 122, 0, 2, 0, 0], [0, 140, 1, 55, 0, 0], [0, 147, 6, 132, 0, 0], [0, 110, 0, 146, 0, 0], [0, 91, 0, 50, 0, 0], [16, 753, 0, 0, 0, 0], [6, 2, 0, 0, 0, 0], [55, 81, 0, 0, 0, 0], [7, 61, 0, 0, 0, 0], [15, 13, 0, 0, 0, 0], [11, 94, 0, 0, 0, 0], [0, 65, 0, 6, 0, 0], [0, 222, 3, 118, 0, 0], [7, 0, 0, 0, 0, 0], [47, 163, 0, 0, 0, 0], [117, 22, 0, 0, 0, 0], [0, 6, 0, 0, 0, 0], [0, 26, 1, 163, 0, 0], [0, 98, 5, 206, 0, 0], [0, 125, 6, 130, 0, 0], [0, 22, 0, 2, 0, 0], [159, 30, 0, 0, 0, 0], [93, 56, 0, 0, 0, 0], [2, 12, 0, 0, 0, 0], [330, 157, 0, 0, 0, 0], [0, 0, 0, 15, 0, 31], [0, 0, 0, 37, 0, 14], [27, 58, 0, 0, 0, 0], [13, 2, 0, 0, 0, 0], [0, 0, 0, 158, 1, 18], [0, 0, 0, 12, 0, 13], [0, 35, 5, 373, 0, 0], [0, 12, 3, 15, 0, 0], [14, 0, 0, 0, 0, 0], [88, 102, 0, 0, 0, 0], [0, 15, 1, 2, 0, 0], [0, 97, 2, 152, 0, 0], [83, 1206, 0, 0, 0, 0], [0, 0, 0, 4, 0, 0], [11, 402, 0, 1, 0, 0], [4, 0, 0, 0, 0, 0], [79, 61, 0, 0, 0, 0], [100, 175, 0, 0, 0, 0], [0, 0, 0, 103, 0, 27], [0, 0, 0, 75, 0, 60], [0, 0, 0, 186, 0, 125], [0, 0, 0, 11, 0, 29], [12, 8, 0, 0, 0, 0], [0, 21, 0, 0, 0, 0], [82, 93, 0, 0, 0, 0], [15, 59, 0, 0, 0, 0], [7, 36, 0, 0, 0, 0], [48, 45, 0, 0, 0, 0], [0, 0, 0, 104, 0, 194], [0, 0, 0, 14, 0, 3], [0, 0, 0, 93, 0, 131], [0, 0, 0, 11, 0, 63], [0, 465, 1, 147, 0, 0], [0, 107, 0, 72, 0, 0], [0, 462, 1, 136, 0, 0], [0, 3, 0, 11, 0, 0], [0, 419, 6, 231, 0, 0], [0, 3, 0, 14, 0, 0], [0, 224, 2, 150, 0, 0], [0, 25, 1, 46, 0, 0], [0, 1, 0, 7, 0, 0], [0, 183, 4, 42, 0, 0], [0, 129, 1, 13, 0, 0], [0, 54, 3, 29, 0, 0], [58, 60, 0, 1, 0, 0], [15, 57, 0, 0, 0, 0], [0, 0, 0, 7, 0, 1], [0, 0, 0, 4, 0, 28], [55, 84, 0, 0, 0, 0], [27, 9, 0, 0, 0, 0], [44, 100, 0, 0, 0, 0], [69, 60, 0, 0, 0, 0], [11, 28, 0, 0, 0, 0], [58, 32, 0, 0, 0, 0], [30, 148, 0, 0, 0, 0], [17, 15, 0, 0, 0, 0], [22, 0, 0, 0, 0, 0], [5, 9, 0, 0, 0, 0], [0, 0, 0, 22, 0, 27], [0, 0, 0, 33, 3, 5], [112, 101, 0, 0, 0, 0], [154, 64, 0, 0, 0, 0], [153, 54, 0, 0, 0, 0], [1, 10, 0, 0, 0, 0], [145, 39, 0, 0, 0, 0], [8, 15, 0, 0, 0, 0], [0, 35, 0, 7, 0, 0], [0, 6, 0, 13, 0, 0], [13, 20, 0, 0, 0, 0], [23, 3, 0, 0, 0, 0], [61, 9, 0, 0, 0, 0], [188, 113, 0, 2, 0, 0], [45, 45, 0, 0, 0, 0], [285, 112, 0, 0, 0, 0], [25, 5, 0, 0, 0, 0], [20, 40, 0, 0, 0, 0], [26, 28, 0, 0, 0, 0], [259, 84, 0, 0, 0, 0], [7, 14, 0, 0, 0, 0], [252, 70, 0, 0, 0, 0], [0, 18, 0, 15, 0, 0], [0, 612, 4, 85, 0, 0], [0, 10, 1, 11, 0, 0], [0, 602, 3, 74, 0, 0], [0, 0, 0, 225, 4, 20], [0, 0, 0, 42, 1, 22], [43, 25, 0, 0, 0, 0], [5, 20, 0, 0, 0, 0], [10, 21, 0, 0, 0, 0], [33, 4, 0, 0, 0, 0], [39, 43, 0, 0, 0, 0], [2, 26, 0, 0, 0, 0], [34, 18, 0, 0, 0, 0], [5, 25, 0, 0, 0, 0], [0, 40, 1, 76, 0, 0], [0, 11, 0, 98, 0, 0], [0, 0, 0, 5, 0, 0], [0, 762, 7, 159, 0, 0], [0, 21, 3, 17, 0, 0], [0, 741, 4, 142, 0, 0], [0, 443, 4, 463, 0, 0], [0, 28, 0, 68, 0, 0], [42, 115, 0, 0, 0, 0], [58, 60, 0, 0, 0, 0], [28, 141, 0, 0, 0, 0], [5, 0, 0, 0, 0, 0], [0, 0, 0, 81, 2, 27], [2, 0, 6, 166, 0, 2], [0, 0, 0, 42, 0, 0], [0, 0, 0, 39, 2, 27], [0, 4, 0, 0, 0, 0], [817, 73, 0, 0, 0, 0], [0, 220, 3, 107, 0, 0], [0, 2, 0, 11, 0, 0], [0, 135, 3, 89, 0, 0], [0, 85, 0, 18, 0, 0], [0, 70, 0, 22, 0, 0], [0, 65, 3, 67, 0, 0], [0, 0, 0, 5, 0, 0], [0, 85, 0, 13, 0, 0], [87, 36, 0, 0, 0, 0], [44, 52, 0, 0, 0, 0], [32, 18, 0, 0, 0, 0], [12, 34, 0, 0, 0, 0], [0, 16, 3, 42, 0, 0], [0, 109, 3, 88, 0, 0], [0, 0, 0, 78, 0, 27], [0, 0, 0, 108, 0, 98], [0, 0, 0, 222, 0, 67], [0, 0, 0, 50, 3, 40], [623, 117, 0, 0, 0, 0], [8, 11, 0, 0, 0, 0], [0, 62, 0, 49, 0, 0], [0, 48, 0, 97, 0, 0], [0, 141, 2, 41, 0, 0], [0, 4, 2, 10, 0, 0], [208, 45, 0, 0, 0, 0], [609, 28, 0, 0, 0, 0], [203, 34, 0, 0, 0, 0], [5, 11, 0, 0, 0, 0], [0, 3, 0, 29, 0, 0], [0, 94, 2, 123, 0, 0], [0, 20, 3, 7, 0, 0], [0, 1, 0, 10, 0, 0], [0, 55, 0, 29, 0, 0], [0, 7, 0, 20, 0, 0], [0, 7, 0, 0, 0, 0], [92, 41, 0, 0, 0, 0], [0, 7, 0, 0, 0, 0], [92, 34, 0, 0, 0, 0], [2, 21, 0, 0, 0, 0], [16, 11, 0, 0, 0, 0], [0, 0, 0, 68, 0, 68], [0, 0, 0, 24, 0, 68], [25, 23, 0, 0, 0, 0], [14, 59, 0, 0, 0, 0], [19, 5, 0, 0, 0, 0], [6, 18, 0, 0, 0, 0], [14, 32, 0, 0, 0, 0], [3, 779, 6, 66, 0, 0], [140, 621, 0, 0, 0, 0], [79, 174, 0, 0, 0, 0], [22, 16, 0, 0, 0, 0], [57, 158, 0, 0, 0, 0], [16, 2, 0, 0, 0, 0], [6, 14, 0, 0, 0, 0], [104, 553, 0, 0, 0, 0], [36, 68, 0, 0, 0, 0], [0, 164, 0, 108, 0, 0], [0, 10, 0, 25, 0, 0], [0, 44, 0, 9, 0, 0], [0, 120, 0, 99, 0, 0], [0, 7, 0, 2, 0, 0], [0, 18, 0, 91, 0, 0], [0, 0, 0, 6, 0, 1], [0, 0, 0, 25, 4, 123], [18, 21, 0, 0, 0, 0], [85, 414, 0, 0, 0, 0], [6, 19, 0, 0, 0, 0], [12, 2, 0, 0, 0, 0], [16, 19, 0, 0, 0, 0], [69, 395, 0, 0, 0, 0], [0, 33, 2, 19, 0, 0], [0, 0, 0, 9, 0, 0], [0, 122, 2, 109, 0, 0], [0, 102, 0, 41, 0, 0], [60, 99, 0, 0, 0, 0], [7, 54, 0, 0, 0, 0], [3, 54, 0, 0, 0, 0], [4, 0, 0, 0, 0, 0], [107, 56, 0, 0, 0, 0], [31, 44, 0, 0, 0, 0], [8, 17, 0, 0, 0, 0], [99, 39, 0, 0, 0, 0], [1, 17, 0, 0, 0, 0], [30, 27, 0, 0, 0, 0], [28, 22, 0, 0, 0, 0], [17, 54, 0, 0, 0, 0], [38, 55, 0, 1, 0, 0], [20, 5, 0, 0, 0, 0], [0, 244, 4, 100, 0, 0], [0, 175, 2, 131, 0, 0], [0, 219, 4, 70, 0, 0], [0, 25, 0, 30, 0, 0], [0, 419, 4, 457, 0, 0], [0, 24, 0, 6, 0, 0], [191, 54, 0, 0, 0, 0], [0, 5, 0, 0, 0, 0], [0, 13, 0, 1, 0, 0], [0, 52, 3, 66, 0, 0], [23, 47, 0, 0, 0, 0], [115, 88, 0, 0, 0, 0], [0, 56, 4, 46, 0, 0], [0, 2, 0, 16, 0, 0], [0, 4, 0, 17, 0, 0], [0, 52, 4, 29, 0, 0], [30, 1366, 0, 31, 0, 0], [4, 1, 0, 0, 0, 0], [0, 14, 1, 7, 0, 0], [0, 9, 3, 36, 0, 0], [0, 0, 0, 0, 0, 11], [0, 0, 0, 16, 0, 10], [0, 4787, 2, 172, 0, 0], [0, 1, 0, 4, 0, 0], [194, 31, 0, 0, 0, 0], [0, 4, 0, 0, 0, 0], [14, 3, 0, 0, 0, 0], [12, 25, 0, 0, 0, 0], [3, 17, 0, 0, 0, 0], [5, 0, 0, 0, 0, 0], [0, 0, 0, 5, 0, 0], [0, 0, 0, 19, 0, 68], [0, 0, 0, 8, 0, 3], [0, 0, 0, 11, 0, 65], [3, 573, 6, 23, 0, 0], [0, 206, 0, 43, 0, 0], [54, 13, 0, 0, 0, 0], [134, 100, 0, 2, 0, 0], [6, 14, 0, 0, 0, 0], [11, 1, 0, 0, 0, 0], [57, 329, 0, 0, 0, 0], [6, 2, 0, 0, 0, 0], [1674, 45, 0, 0, 0, 0], [0, 3, 0, 0, 0, 0], [0, 12, 0, 24, 0, 0], [0, 167, 1, 97, 0, 0], [0, 131, 1, 92, 0, 0], [0, 36, 0, 5, 0, 0], [102, 16, 0, 0, 0, 0], [49, 30, 0, 0, 0, 0], [11, 19, 0, 0, 0, 0], [17, 3, 0, 0, 0, 0], [45, 14, 0, 2, 0, 0], [89, 86, 0, 0, 0, 0], [0, 9, 3, 15, 0, 0], [0, 45, 0, 14, 0, 0], [0, 5, 1, 38, 0, 0], [0, 7, 1, 3, 0, 0], [430, 25, 0, 0, 0, 0], [1, 4, 0, 0, 0, 0], [66, 15, 0, 0, 0, 0], [21, 21, 0, 0, 0, 0], [0, 12, 0, 16, 0, 0], [0, 128, 1, 39, 0, 0], [9, 32, 0, 0, 0, 0], [5, 0, 0, 0, 0, 0], [3, 90, 0, 0, 0, 0], [29, 81, 0, 0, 0, 0], [11, 6, 0, 0, 0, 0], [18, 75, 0, 0, 0, 0], [45, 1008, 0, 0, 0, 0], [38, 198, 0, 0, 0, 0], [0, 30, 0, 8, 0, 0], [0, 90, 0, 91, 0, 0], [59, 0, 0, 2, 0, 0], [0, 0, 0, 3, 0, 0], [29, 43, 0, 0, 0, 0], [13, 2, 0, 0, 0, 0], [0, 19, 1, 2, 0, 0], [0, 0, 0, 4, 0, 0], [0, 91, 39, 3120, 1, 0], [0, 19, 75, 25335, 20, 107], [0, 65, 13, 517, 0, 0], [0, 26, 26, 2603, 1, 0], [0, 30, 2, 53, 0, 0], [0, 35, 11, 464, 0, 0], [0, 8, 0, 0, 0, 0], [0, 22, 2, 53, 0, 0], [4, 0, 0, 0, 0, 0], [11, 57, 0, 0, 0, 0], [406, 30, 0, 0, 0, 0], [36, 16, 0, 0, 0, 0], [0, 14, 1, 33, 0, 0], [0, 23, 11, 468, 0, 0], [0, 8, 1, 33, 0, 0], [0, 6, 0, 0, 0, 0], [0, 4, 1, 33, 0, 0], [0, 4, 0, 0, 0, 0], [0, 0, 0, 3, 0, 0], [0, 0, 0, 41, 7, 672], [0, 0, 0, 0, 0, 64], [0, 0, 0, 11, 0, 20], [0, 0, 0, 36, 0, 21], [0, 0, 0, 67, 0, 6], [59, 65, 0, 0, 0, 0], [56, 23, 0, 0, 0, 0], [9, 0, 0, 0, 0, 0], [3, 8, 0, 0, 0, 0], [0, 15, 0, 12, 0, 0], [0, 13, 0, 56, 0, 0], [0, 73, 0, 50, 0, 0], [0, 18, 0, 0, 0, 0], [0, 1, 0, 11, 0, 0], [0, 72, 0, 39, 0, 0], [0, 46, 2, 16, 0, 0], [0, 6, 2, 13, 0, 0], [464, 41, 0, 0, 0, 0], [1, 4, 0, 0, 0, 0], [0, 218, 1, 40, 0, 0], [0, 39, 0, 24, 0, 0], [0, 359, 1, 62, 0, 0], [0, 4, 0, 7, 0, 0], [3, 0, 0, 0, 0, 0], [1, 29, 0, 0, 0, 0], [5, 2, 0, 0, 0, 0], [2, 34, 0, 0, 0, 0], [54, 27, 0, 0, 0, 0], [110, 128, 0, 0, 0, 0], [48, 154, 0, 0, 0, 0], [9, 4, 0, 0, 0, 0], [3, 56, 0, 0, 0, 0], [45, 98, 0, 0, 0, 0], [28, 88, 0, 0, 0, 0], [17, 10, 0, 0, 0, 0], [0, 157, 0, 19, 0, 0], [0, 49, 0, 24, 0, 0], [0, 39, 0, 8, 0, 0], [0, 10, 0, 16, 0, 0], [89, 44, 0, 0, 0, 0], [4, 12, 0, 0, 0, 0], [46, 369, 0, 0, 0, 0], [47, 141, 0, 0, 0, 0], [9, 73, 0, 0, 0, 0], [38, 68, 0, 0, 0, 0], [27, 23, 0, 0, 0, 0], [11, 45, 0, 0, 0, 0], [0, 32, 5, 373, 0, 0], [0, 3, 0, 0, 0, 0], [0, 91, 5, 205, 0, 0], [0, 7, 0, 1, 0, 0], [0, 28, 0, 26, 0, 0], [0, 63, 5, 179, 0, 0], [0, 41, 1, 66, 0, 0], [0, 22, 4, 113, 0, 0], [0, 13, 0, 2, 0, 0], [0, 15, 0, 24, 0, 0], [27, 13, 0, 0, 0, 0], [57, 0, 0, 0, 0, 0], [17, 39, 0, 0, 0, 0], [12, 4, 0, 0, 0, 0], [68, 30, 0, 0, 0, 0], [555, 87, 0, 0, 0, 0], [17, 22, 0, 0, 0, 0], [33, 9, 0, 0, 0, 0], [5, 19, 0, 0, 0, 0], [12, 3, 0, 0, 0, 0], [12, 7, 0, 0, 0, 0], [8, 33, 0, 0, 0, 0], [0, 6, 1, 97, 0, 0], [0, 52, 6, 163, 0, 0], [0, 6, 1, 67, 0, 0], [0, 46, 5, 96, 0, 0], [0, 6, 0, 0, 0, 0], [0, 40, 5, 96, 0, 0], [0, 3, 0, 0, 0, 0], [0, 3, 1, 67, 0, 0], [0, 17, 0, 48, 0, 0], [0, 24, 1, 18, 0, 0], [46, 43, 0, 0, 0, 0], [12, 0, 0, 0, 0, 0], [14, 28, 0, 0, 0, 0], [32, 15, 0, 0, 0, 0], [0, 6, 0, 4, 0, 0], [0, 2, 0, 40, 0, 0], [0, 7, 0, 9, 0, 0], [0, 0, 0, 65, 0, 0], [0, 0, 0, 95, 0, 97], [0, 0, 0, 13, 0, 1], [24, 5, 0, 0, 0, 0], [3, 8, 0, 0, 0, 0], [95, 34777, 15, 141, 0, 0], [0, 5, 0, 5, 0, 0], [0, 18, 1, 45, 0, 0], [0, 7, 0, 1, 0, 0], [0, 25, 0, 0, 0, 0], [8, 8, 0, 0, 0, 0], [0, 0, 0, 17, 0, 0], [0, 0, 0, 25, 0, 20], [56, 27, 0, 0, 0, 0], [52, 3, 0, 0, 0, 0], [38, 27, 0, 0, 0, 0], [18, 0, 0, 0, 0, 0], [0, 4, 0, 0, 0, 0], [10, 1, 0, 0, 0, 0], [82, 115, 0, 0, 0, 0], [28, 13, 0, 0, 0, 0], [53, 2, 0, 0, 0, 0], [138, 52, 0, 0, 0, 0], [103, 51, 0, 0, 0, 0], [35, 1, 0, 0, 0, 0], [0, 1, 0, 4, 0, 0], [0, 601, 3, 70, 0, 0], [25, 10, 0, 0, 0, 0], [33, 49, 0, 0, 0, 0], [3, 37, 0, 0, 0, 0], [7, 5, 0, 0, 0, 0], [9, 0, 0, 0, 0, 0], [2, 6, 0, 0, 0, 0], [0, 76, 0, 72, 0, 0], [0, 55, 1, 20, 0, 0], [0, 1, 0, 12, 0, 0], [0, 75, 0, 60, 0, 0], [15, 2, 0, 0, 0, 0], [97, 99, 0, 0, 0, 0], [11, 13, 0, 0, 0, 0], [12, 0, 0, 0, 0, 0], [65, 897, 0, 0, 0, 0], [31, 124, 0, 0, 0, 0], [5, 1, 0, 0, 0, 0], [26, 123, 0, 0, 0, 0], [0, 19, 75, 23858, 14, 42], [0, 0, 0, 1477, 6, 65], [0, 0, 0, 1476, 6, 58], [0, 0, 0, 1, 0, 7], [39, 20, 0, 0, 0, 0], [58, 79, 0, 0, 0, 0], [22, 52, 0, 0, 0, 0], [36, 27, 0, 0, 0, 0], [0, 122, 2, 101, 0, 0], [0, 0, 0, 8, 0, 0], [0, 48, 0, 16, 0, 0], [0, 59, 0, 56, 0, 0], [0, 71, 0, 133, 0, 0], [0, 55, 0, 211, 0, 0], [0, 45, 0, 46, 0, 0], [0, 26, 0, 87, 0, 0], [0, 31, 0, 16, 0, 0], [0, 14, 0, 30, 0, 0], [22, 4, 0, 0, 0, 0], [10, 14, 0, 0, 0, 0], [0, 1, 0, 9, 0, 0], [0, 174, 2, 122, 0, 0], [0, 131, 2, 110, 0, 0], [0, 43, 0, 12, 0, 0], [0, 42, 0, 7, 0, 0], [0, 1, 0, 5, 0, 0], [11, 0, 0, 0, 0, 0], [27, 27, 0, 0, 0, 0], [0, 0, 0, 0, 0, 6], [0, 0, 0, 39, 2, 21], [27, 69, 0, 0, 0, 0], [30, 260, 0, 0, 0, 0], [3, 0, 0, 0, 0, 0], [27, 260, 0, 0, 0, 0], [53, 8, 0, 0, 0, 0], [39, 26, 0, 0, 0, 0], [23, 4, 0, 0, 0, 0], [16, 22, 0, 0, 0, 0], [0, 41, 13, 435, 0, 0], [0, 14, 9, 1079, 0, 0], [0, 0, 0, 40, 0, 56], [0, 0, 0, 28, 0, 12], [0, 1, 0, 5, 0, 0], [0, 69, 0, 17, 0, 0], [2, 23, 0, 0, 0, 0], [15, 16, 0, 0, 0, 0], [0, 13, 0, 9, 0, 0], [0, 1300, 2, 122, 0, 0], [56, 3, 0, 0, 0, 0], [89, 36, 0, 0, 0, 0], [14, 18, 0, 0, 0, 0], [75, 18, 0, 0, 0, 0], [5, 16, 0, 0, 0, 0], [9, 2, 0, 0, 0, 0], [0, 35, 1, 256, 0, 0], [0, 12, 0, 17, 0, 0], [0, 5, 0, 17, 0, 0], [0, 7, 0, 0, 0, 0], [0, 65, 2, 60, 0, 0], [0, 29, 0, 63, 0, 0], [0, 36, 0, 49, 0, 0], [0, 29, 2, 11, 0, 0], [7, 11, 0, 0, 0, 0], [92, 28, 0, 0, 0, 0], [0, 19, 75, 23857, 14, 39], [0, 0, 0, 1, 0, 3], [175, 19, 0, 0, 0, 0], [28, 15, 0, 0, 0, 0], [0, 39, 0, 5, 0, 0], [0, 0, 0, 3, 0, 0], [0, 2, 1, 13, 0, 0], [0, 7, 2, 2, 0, 0], [40, 46, 0, 0, 0, 0], [39, 15, 0, 0, 0, 0], [39, 34, 0, 0, 0, 0], [1, 12, 0, 0, 0, 0], [26, 64, 0, 0, 0, 0], [10, 4, 0, 0, 0, 0], [66, 395, 0, 0, 0, 0], [3, 0, 0, 0, 0, 0], [22, 245, 0, 0, 0, 0], [44, 150, 0, 0, 0, 0], [0, 8, 0, 0, 0, 0], [3, 0, 0, 0, 0, 0], [3, 0, 0, 0, 0, 0], [0, 8, 0, 0, 0, 0], [0, 0, 3, 0, 0, 0], [0, 20, 0, 7, 0, 0], [0, 8, 0, 5, 0, 0], [0, 18, 0, 82, 0, 0], [76, 88, 0, 0, 0, 0], [6, 27, 0, 0, 0, 0], [0, 19, 0, 17, 0, 0], [0, 13, 0, 47, 0, 0], [0, 0, 0, 22, 1, 20], [0, 0, 0, 20, 0, 2], [0, 3, 0, 0, 0, 0], [117, 19, 0, 0, 0, 0], [0, 6, 0, 0, 0, 0], [36, 21, 0, 0, 0, 0], [0, 5, 0, 25, 0, 0], [0, 9, 0, 5, 0, 0], [12, 1, 0, 0, 0, 0], [5, 9, 0, 0, 0, 0], [22, 25, 0, 0, 0, 0], [8, 40, 0, 0, 0, 0], [0, 32, 0, 38, 0, 0], [0, 8, 1, 38, 0, 0], [9, 4, 0, 0, 0, 0], [1, 10, 0, 0, 0, 0], [1, 10, 0, 0, 0, 0], [15, 9, 0, 0, 0, 0], [14, 47, 0, 0, 0, 0], [6, 268, 0, 0, 0, 0], [19, 2, 0, 0, 0, 0], [0, 3, 0, 0, 0, 0], [0, 47, 0, 7, 0, 0], [0, 55, 0, 34, 0, 0], [0, 48, 1, 46, 0, 0], [0, 4, 2, 20, 0, 0], [0, 44, 1, 31, 0, 0], [0, 4, 0, 15, 0, 0], [25, 141, 0, 0, 0, 0], [3, 0, 0, 0, 0, 0], [29, 28, 0, 0, 0, 0], [4, 21, 0, 0, 0, 0], [2, 573, 6, 21, 0, 0], [1, 0, 0, 2, 0, 0], [2, 573, 5, 19, 0, 0], [0, 0, 1, 2, 0, 0], [0, 0, 0, 6, 0, 0], [0, 0, 0, 87, 0, 131], [6, 1, 0, 0, 0, 0], [2, 10, 0, 0, 0, 0], [0, 1, 0, 21, 0, 0], [0, 28, 0, 42, 0, 0], [18, 11, 0, 0, 0, 0], [42, 88, 0, 0, 0, 0], [14, 26, 0, 0, 0, 0], [21, 9, 0, 0, 0, 0], [0, 1266, 2, 108, 0, 0], [0, 34, 0, 14, 0, 0], [0, 0, 0, 4, 0, 0], [0, 34, 0, 10, 0, 0], [5, 94, 0, 0, 0, 0], [33, 104, 0, 0, 0, 0], [21, 28, 0, 0, 0, 0], [12, 76, 0, 0, 0, 0], [0, 39, 0, 19, 0, 0], [0, 0, 0, 5, 0, 0], [0, 0, 0, 5, 0, 32], [0, 0, 0, 3, 0, 0], [0, 8, 0, 0, 0, 0], [58, 52, 0, 0, 0, 0], [14, 2, 0, 0, 0, 0], [44, 50, 0, 0, 0, 0], [8, 38, 0, 0, 0, 0], [19, 20, 0, 0, 0, 0], [63, 76, 0, 0, 0, 0], [26, 10, 0, 0, 0, 0], [66, 12, 0, 0, 0, 0], [0, 3, 0, 0, 0, 0], [48, 17, 0, 0, 0, 0], [10, 15, 0, 0, 0, 0], [0, 11, 0, 2, 0, 0], [0, 8, 0, 15, 0, 0], [9, 0, 0, 0, 0, 0], [1, 4, 0, 0, 0, 0]];


    var findMax = function(nums) {
        var index = 0;
        for (var i = 0; i < nums.length; i++) {
            index = nums[i] > nums[index] ? i : index;
        }
        return index;
    };

    this.predict = function(features, node) {
        node = (typeof node !== 'undefined') ? node : 0;
        if (this.thresholds[node] != -2) {
            if (features[this.indices[node]] <= this.thresholds[node]) {
                return this.predict(features, this.lChilds[node]);
            } else {
                return this.predict(features, this.rChilds[node]);
            }
        }
        return findMax(this.classes[node]);
    };

};

export default DecisionTreeClassifier;