var DecisionTreeClassifier = function() {

    this.lChilds = [1, 3, 5, 7, 9, 11, 33, 19, 39, 13, 15, 27, 25, 67, 59, 17, 69, 29, 51, 21, 23, 203, 35, 223, 37, 31, 47, 83, 61, 41, 65, 57, 77, 87, 75, 55, 71, 105, 63, 49, 149, 45, 43, 165, 111, 53, 113, 91, 89, 141, 257, 85, 81, 119, 175, 93, -1, 181, 155, 73, -1, 195, -1, 117, 171, 123, 159, -1, 101, 103, 131, 107, 129, 109, 233, 145, 133, 79, 179, -1, 139, 95, 157, 121, 127, 221, -1, 125, -1, 147, 143, 225, 243, 271, 97, 381, -1, 99, 297, 231, 173, 191, 245, 237, -1, 327, 135, 161, 229, 183, 289, 207, 153, 239, 115, -1, 325, 235, -1, 241, 151, 305, -1, -1, 259, -1, 261, 253, -1, 215, 255, -1, 213, -1, -1, 137, 343, 189, -1, 281, 163, 187, 383, 199, -1, 211, -1, 201, -1, 177, 291, 307, -1, 303, 349, -1, -1, 269, 209, 193, -1, 169, -1, 275, -1, -1, 167, -1, -1, -1, 217, -1, 397, 313, 309, 379, -1, 219, -1, 389, 287, -1, 205, 315, 185, -1, -1, 301, -1, -1, -1, -1, -1, -1, 283, 345, 197, 277, -1, -1, 385, -1, -1, -1, 299, -1, 329, -1, 249, -1, -1, -1, -1, 265, -1, -1, -1, 247, -1, -1, 279, -1, 263, 293, -1, -1, 227, -1, -1, -1, -1, -1, -1, 367, -1, -1, 311, -1, -1, -1, 335, 251, -1, -1, -1, -1, 267, -1, -1, 365, -1, 361, -1, -1, 357, -1, 375, -1, 395, -1, -1, -1, -1, -1, -1, -1, -1, 373, 317, -1, 285, 273, -1, -1, -1, -1, -1, -1, -1, -1, 295, -1, 377, -1, -1, -1, -1, 333, -1, 355, -1, -1, -1, -1, -1, -1, -1, -1, -1, -1, -1, -1, 387, 319, -1, -1, 331, -1, 321, -1, -1, -1, -1, -1, -1, -1, -1, -1, -1, -1, -1, -1, 323, -1, -1, -1, -1, -1, -1, -1, -1, -1, -1, -1, -1, 337, 351, 339, -1, 341, -1, -1, -1, -1, -1, -1, 347, -1, -1, -1, -1, -1, 353, -1, -1, -1, -1, 359, -1, -1, -1, 363, -1, 371, -1, -1, -1, -1, 369, -1, -1, -1, -1, -1, -1, -1, -1, -1, -1, -1, -1, -1, -1, -1, -1, -1, -1, -1, -1, 391, -1, 393, -1, -1, -1, -1, -1, -1, -1];
    this.rChilds = [2, 4, 6, 8, 10, 12, 34, 20, 40, 14, 16, 28, 26, 68, 60, 18, 70, 30, 52, 22, 24, 204, 36, 224, 38, 32, 48, 84, 62, 42, 66, 58, 78, 88, 76, 56, 72, 106, 64, 50, 150, 46, 44, 166, 112, 54, 114, 92, 90, 142, 258, 86, 82, 120, 176, 94, -1, 182, 156, 74, -1, 196, -1, 118, 172, 124, 160, -1, 102, 104, 132, 108, 130, 110, 234, 146, 134, 80, 180, -1, 140, 96, 158, 122, 128, 222, -1, 126, -1, 148, 144, 226, 244, 272, 98, 382, -1, 100, 298, 232, 174, 192, 246, 238, -1, 328, 136, 162, 230, 184, 290, 208, 154, 240, 116, -1, 326, 236, -1, 242, 152, 306, -1, -1, 260, -1, 262, 254, -1, 216, 256, -1, 214, -1, -1, 138, 344, 190, -1, 282, 164, 188, 384, 200, -1, 212, -1, 202, -1, 178, 292, 308, -1, 304, 350, -1, -1, 270, 210, 194, -1, 170, -1, 276, -1, -1, 168, -1, -1, -1, 218, -1, 398, 314, 310, 380, -1, 220, -1, 390, 288, -1, 206, 316, 186, -1, -1, 302, -1, -1, -1, -1, -1, -1, 284, 346, 198, 278, -1, -1, 386, -1, -1, -1, 300, -1, 330, -1, 250, -1, -1, -1, -1, 266, -1, -1, -1, 248, -1, -1, 280, -1, 264, 294, -1, -1, 228, -1, -1, -1, -1, -1, -1, 368, -1, -1, 312, -1, -1, -1, 336, 252, -1, -1, -1, -1, 268, -1, -1, 366, -1, 362, -1, -1, 358, -1, 376, -1, 396, -1, -1, -1, -1, -1, -1, -1, -1, 374, 318, -1, 286, 274, -1, -1, -1, -1, -1, -1, -1, -1, 296, -1, 378, -1, -1, -1, -1, 334, -1, 356, -1, -1, -1, -1, -1, -1, -1, -1, -1, -1, -1, -1, 388, 320, -1, -1, 332, -1, 322, -1, -1, -1, -1, -1, -1, -1, -1, -1, -1, -1, -1, -1, 324, -1, -1, -1, -1, -1, -1, -1, -1, -1, -1, -1, -1, 338, 352, 340, -1, 342, -1, -1, -1, -1, -1, -1, 348, -1, -1, -1, -1, -1, 354, -1, -1, -1, -1, 360, -1, -1, -1, 364, -1, 372, -1, -1, -1, -1, 370, -1, -1, -1, -1, -1, -1, -1, -1, -1, -1, -1, -1, -1, -1, -1, -1, -1, -1, -1, -1, 392, -1, 394, -1, -1, -1, -1, -1, -1, -1];
    this.thresholds = [0.35465116798877716, 0.12209302186965942, 0.7151162773370743, 1.479844093322754, 1.0543748140335083, 1.0820332765579224, 1.0738972425460815, 0.08961419016122818, 1.5612979531288147, 0.08182055130600929, 0.22089504450559616, 0.5922802090644836, 2.964363217353821, 0.9833512306213379, 0.37970709800720215, 2.3475884199142456, 1.462295651435852, 0.6878892183303833, 0.12174885720014572, 0.06395268440246582, 0.9843263328075409, 0.05932372994720936, 1.3629563450813293, 0.11615730449557304, 0.15544548630714417, 0.10774946585297585, 0.3406551033258438, 0.9182936549186707, 1.2257429361343384, 2.0373568534851074, 1.2254647612571716, 1.5557103753089905, 1.3121721148490906, 1.913770318031311, 0.9377657473087311, 0.19081860780715942, 0.07157604023814201, 0.07752224057912827, 1.2332695126533508, 0.06477072462439537, 1.627072274684906, 1.16871178150177, 0.15308433771133423, 0.13080503046512604, 0.17861459404230118, 0.07236587256193161, 0.18164536356925964, 3.704545259475708, 3.2675353288650513, 0.657504141330719, 0.16620416194200516, 2.599815845489502, 2.4603160619735718, 0.057985031977295876, 0.09133781120181084, 0.07460345327854156, -2.0, 0.812470942735672, 1.147512137889862, 0.11836794018745422, -2.0, 0.6792469620704651, -2.0, 0.13720160722732544, 0.08792218193411827, 0.4198988974094391, 0.05376717261970043, -2.0, 0.06307660043239594, 0.30836668610572815, 0.1415402516722679, 0.6979166567325592, 0.08941222354769707, 0.9609918296337128, 0.290024995803833, 1.344855546951294, 1.7980024814605713, 0.5922987461090088, 0.4809906780719757, -2.0, 0.12410902976989746, 0.15954483300447464, 2.569478392601013, 0.24964147061109543, 0.19335145503282547, 2.4711776971817017, -2.0, 0.32937851548194885, -2.0, 0.42998236417770386, 0.4083051085472107, 3.4250317811965942, 1.4951775074005127, 0.09538238123059273, 0.1291901096701622, 0.15790106356143951, -2.0, 0.17103710025548935, 1.1537837982177734, 0.20740973949432373, 1.2877954244613647, 0.45182809233665466, 0.05525185167789459, 1.290097177028656, -2.0, 1.3249350786209106, 1.2097835540771484, 0.17650699615478516, 1.4245578050613403, 0.14273067563772202, 0.1382487565279007, 2.2307181358337402, 2.1529746055603027, 0.05364998243749142, 1.7883882522583008, -2.0, 0.20371979475021362, 0.10795659199357033, -2.0, 0.5729166567325592, 1.10444837808609, 0.8562686443328857, -2.0, -2.0, 1.191354751586914, -2.0, 0.8595134317874908, 0.16010968387126923, -2.0, 1.4119030833244324, 0.5371523201465607, -2.0, 1.8117093443870544, -2.0, -2.0, 0.14376744627952576, 0.7497877776622772, 1.173270344734192, -2.0, 0.31793999671936035, 1.1637502312660217, 0.6979166567325592, 1.5097894072532654, 2.145034074783325, -2.0, 0.33659590780735016, -2.0, 0.89478999376297, -2.0, 0.06489961221814156, 0.27992893755435944, 0.2709178477525711, -2.0, 0.3098141551017761, 0.2338416576385498, -2.0, -2.0, 1.330020010471344, 0.14107002317905426, 0.6911468803882599, -2.0, 1.4435760378837585, -2.0, 0.14234322309494019, -2.0, -2.0, 2.283062219619751, -2.0, -2.0, -2.0, 0.07024151086807251, -2.0, 1.3529380559921265, 0.10817690193653107, 0.36729662120342255, 1.1203031539916992, -2.0, 0.010416666977107525, -2.0, 1.4705172777175903, 0.2652079164981842, -2.0, 0.06640468910336494, 1.2777230143547058, 0.7229379713535309, -2.0, -2.0, 1.5255098938941956, -2.0, -2.0, -2.0, -2.0, -2.0, -2.0, 0.053962601348757744, 1.012722134590149, 0.5740419626235962, 0.5019937008619308, -2.0, -2.0, 3.4406992197036743, -2.0, -2.0, -2.0, 0.9177280068397522, -2.0, 0.09806537255644798, -2.0, 0.1734672337770462, -2.0, -2.0, -2.0, -2.0, 0.26335859298706055, -2.0, -2.0, -2.0, 1.9665940403938293, -2.0, -2.0, 0.3275235891342163, -2.0, 0.2887745499610901, 0.16035155951976776, -2.0, -2.0, 1.1867135167121887, -2.0, -2.0, -2.0, -2.0, -2.0, -2.0, 0.7581040263175964, -2.0, -2.0, 0.6503890752792358, -2.0, -2.0, -2.0, 0.06536746770143509, 0.05847862362861633, -2.0, -2.0, -2.0, -2.0, 1.4951775074005127, -2.0, -2.0, 0.24291985481977463, -2.0, 0.1805645003914833, -2.0, -2.0, 1.0002315044403076, -2.0, 0.33530066907405853, -2.0, 0.07142568379640579, -2.0, -2.0, -2.0, -2.0, -2.0, -2.0, -2.0, -2.0, 1.0287203788757324, 0.2660789042711258, -2.0, 0.24534893780946732, 0.09525212273001671, -2.0, -2.0, -2.0, -2.0, -2.0, -2.0, -2.0, -2.0, 0.28988581895828247, -2.0, 0.2837814688682556, -2.0, -2.0, -2.0, -2.0, 2.9071308374404907, -2.0, 0.031250000931322575, -2.0, -2.0, -2.0, -2.0, -2.0, -2.0, -2.0, -2.0, -2.0, -2.0, -2.0, -2.0, 0.28509658575057983, 0.1737493798136711, -2.0, -2.0, 0.18254922330379486, -2.0, 0.4757230132818222, -2.0, -2.0, -2.0, -2.0, -2.0, -2.0, -2.0, -2.0, -2.0, -2.0, -2.0, -2.0, -2.0, 0.20983466506004333, -2.0, -2.0, -2.0, -2.0, -2.0, -2.0, -2.0, -2.0, -2.0, -2.0, -2.0, -2.0, 1.3144857287406921, 0.15316683799028397, 0.31562358140945435, -2.0, 0.05801494047045708, -2.0, -2.0, -2.0, -2.0, -2.0, -2.0, 0.6320832669734955, -2.0, -2.0, -2.0, -2.0, -2.0, 1.812011480331421, -2.0, -2.0, -2.0, -2.0, 0.18532924354076385, -2.0, -2.0, -2.0, 1.1042133569717407, -2.0, 0.058481499552726746, -2.0, -2.0, -2.0, -2.0, 0.8374617099761963, -2.0, -2.0, -2.0, -2.0, -2.0, -2.0, -2.0, -2.0, -2.0, -2.0, -2.0, -2.0, -2.0, -2.0, -2.0, -2.0, -2.0, -2.0, -2.0, -2.0, 0.1375260427594185, -2.0, 0.11794572323560715, -2.0, -2.0, -2.0, -2.0, -2.0, -2.0, -2.0];
    this.indices = [0, 0, 0, 1, 1, 1, 1, 7, 1, 9, 9, 17, 1, 1, 8, 1, 1, 17, 9, 17, 1, 17, 1, 17, 15, 9, 9, 1, 17, 1, 1, 1, 1, 17, 17, 8, 9, 9, 1, 9, 1, 1, 9, 9, 9, 9, 9, 1, 1, 13, 17, 1, 1, 4, 9, 6, -2, 17, 17, 9, -2, 17, -2, 9, 9, 10, 4, -2, 9, 9, 17, 24, 9, 1, 7, 1, 1, 17, 9, -2, 9, 9, 1, 2, 4, 1, -2, 9, -2, 9, 9, 1, 22, 17, 9, 2, -2, 15, 1, 13, 1, 10, 4, 1, -2, 1, 1, 2, 1, 6, 6, 1, 1, 9, 1, -2, 4, 9, -2, 24, 1, 1, -2, -2, 1, -2, 1, 8, -2, 1, 15, -2, 1, -2, -2, 9, 10, 1, -2, 11, 1, 24, 1, 23, -2, 9, -2, 21, -2, 5, 8, 10, -2, 12, 13, -2, -2, 22, 9, 12, -2, 1, -2, 9, -2, -2, 1, -2, -2, -2, 7, -2, 1, 9, 12, 1, -2, 24, -2, 1, 12, -2, 9, 22, 1, -2, -2, 1, -2, -2, -2, -2, -2, -2, 9, 1, 1, 11, -2, -2, 1, -2, -2, -2, 21, -2, 6, -2, 7, -2, -2, -2, -2, 9, -2, -2, -2, 23, -2, -2, 13, -2, 14, 9, -2, -2, 22, -2, -2, -2, -2, -2, -2, 16, -2, -2, 13, -2, -2, -2, 9, 2, -2, -2, -2, -2, 22, -2, -2, 16, -2, 18, -2, -2, 1, -2, 10, -2, 6, -2, -2, -2, -2, -2, -2, -2, -2, 1, 13, -2, 12, 17, -2, -2, -2, -2, -2, -2, -2, -2, 15, -2, 13, -2, -2, -2, -2, 1, -2, 24, -2, -2, -2, -2, -2, -2, -2, -2, -2, -2, -2, -2, 17, 15, -2, -2, 9, -2, 17, -2, -2, -2, -2, -2, -2, -2, -2, -2, -2, -2, -2, -2, 14, -2, -2, -2, -2, -2, -2, -2, -2, -2, -2, -2, -2, 1, 9, 10, -2, 9, -2, -2, -2, -2, -2, -2, 17, -2, -2, -2, -2, -2, 1, -2, -2, -2, -2, 4, -2, -2, -2, 1, -2, 8, -2, -2, -2, -2, 1, -2, -2, -2, -2, -2, -2, -2, -2, -2, -2, -2, -2, -2, -2, -2, -2, -2, -2, -2, -2, 9, -2, 12, -2, -2, -2, -2, -2, -2, -2];
    this.classes = [[35754, 73112, 315, 41755, 60, 9004], [35510, 70369, 79, 5453, 0, 0], [244, 2743, 236, 36302, 60, 9004], [30060, 8285, 1, 21, 0, 0], [5450, 62084, 78, 5432, 0, 0], [169, 2743, 227, 35815, 36, 1268], [75, 0, 9, 487, 24, 7736], [28416, 3908, 1, 10, 0, 0], [1644, 4377, 0, 11, 0, 0], [3834, 2718, 1, 222, 0, 0], [1616, 59366, 77, 5210, 0, 0], [151, 1757, 35, 1214, 0, 0], [18, 986, 192, 34601, 36, 1268], [3424, 645, 0, 0, 0, 0], [410, 2073, 1, 222, 0, 0], [1616, 58822, 67, 3990, 0, 0], [0, 544, 10, 1220, 0, 0], [1616, 55422, 37, 1806, 0, 0], [0, 3400, 30, 2184, 0, 0], [26230, 2019, 0, 4, 0, 0], [2186, 1889, 1, 6, 0, 0], [44, 477, 0, 1, 0, 0], [26186, 1542, 0, 3, 0, 0], [1351, 88, 0, 0, 0, 0], [835, 1801, 1, 6, 0, 0], [18, 986, 192, 31649, 20, 140], [0, 0, 0, 2952, 16, 1128], [0, 575, 23, 1066, 0, 0], [151, 1182, 12, 148, 0, 0], [1070, 54711, 37, 1806, 0, 0], [546, 711, 0, 0, 0, 0], [18, 412, 20, 497, 0, 0], [0, 574, 172, 31152, 20, 140], [68, 0, 7, 248, 11, 131], [7, 0, 2, 239, 13, 7605], [23036, 652, 0, 1, 0, 0], [3150, 890, 0, 2, 0, 0], [286, 1457, 0, 1, 0, 0], [549, 344, 1, 5, 0, 0], [1198, 1639, 0, 1, 0, 0], [446, 2738, 0, 10, 0, 0], [1070, 46804, 15, 563, 0, 0], [0, 7907, 22, 1243, 0, 0], [0, 7126, 12, 559, 0, 0], [0, 781, 10, 684, 0, 0], [775, 4044, 0, 0, 0, 0], [295, 42760, 15, 563, 0, 0], [0, 0, 0, 1697, 8, 225], [0, 0, 0, 1255, 8, 903], [1031, 855, 0, 0, 0, 0], [167, 784, 0, 1, 0, 0], [0, 1692, 7, 527, 0, 0], [0, 1708, 23, 1657, 0, 0], [532, 981, 0, 0, 0, 0], [243, 3063, 0, 0, 0, 0], [23011, 547, 0, 1, 0, 0], [25, 105, 0, 0, 0, 0], [18, 311, 5, 77, 0, 0], [0, 101, 15, 420, 0, 0], [410, 2010, 1, 65, 0, 0], [0, 63, 0, 157, 0, 0], [46, 1176, 12, 147, 0, 0], [105, 6, 0, 1, 0, 0], [479, 97, 1, 4, 0, 0], [70, 247, 0, 1, 0, 0], [407, 179, 0, 0, 0, 0], [139, 532, 0, 0, 0, 0], [2396, 138, 0, 0, 0, 0], [1028, 507, 0, 0, 0, 0], [0, 352, 0, 240, 0, 0], [0, 192, 10, 980, 0, 0], [2917, 601, 0, 2, 0, 0], [233, 289, 0, 0, 0, 0], [351, 565, 0, 0, 0, 0], [59, 1445, 1, 65, 0, 0], [0, 0, 0, 138, 11, 7514], [7, 0, 2, 101, 2, 91], [0, 427, 63, 2782, 0, 0], [0, 147, 109, 28370, 20, 140], [0, 84, 29, 2128, 0, 0], [0, 343, 34, 654, 0, 0], [0, 965, 7, 536, 0, 0], [0, 743, 16, 1121, 0, 0], [0, 301, 6, 214, 0, 0], [0, 274, 17, 852, 0, 0], [0, 1470, 7, 302, 0, 0], [0, 222, 0, 225, 0, 0], [3, 0, 4, 246, 11, 131], [65, 0, 3, 2, 0, 0], [0, 0, 0, 845, 6, 365], [0, 0, 0, 410, 2, 538], [0, 0, 0, 1626, 5, 131], [0, 0, 0, 71, 3, 94], [21644, 275, 0, 1, 0, 0], [1367, 272, 0, 0, 0, 0], [0, 877, 6, 356, 0, 0], [0, 88, 1, 180, 0, 0], [1345, 210, 0, 0, 0, 0], [22, 62, 0, 0, 0, 0], [102, 101, 0, 0, 0, 0], [1243, 109, 0, 0, 0, 0], [645, 161, 0, 0, 0, 0], [383, 346, 0, 0, 0, 0], [0, 297, 0, 99, 0, 0], [0, 55, 0, 141, 0, 0], [56, 16, 0, 0, 0, 0], [230, 1441, 0, 1, 0, 0], [2481, 366, 0, 2, 0, 0], [436, 235, 0, 0, 0, 0], [189, 115, 0, 0, 0, 0], [162, 450, 0, 0, 0, 0], [0, 571, 8, 324, 0, 0], [0, 210, 2, 360, 0, 0], [295, 41025, 9, 316, 0, 0], [0, 1735, 6, 247, 0, 0], [0, 1260, 3, 43, 0, 0], [0, 475, 3, 204, 0, 0], [478, 62, 0, 0, 0, 0], [1, 35, 1, 4, 0, 0], [230, 183, 0, 0, 0, 0], [302, 798, 0, 0, 0, 0], [0, 297, 6, 147, 0, 0], [0, 4, 0, 67, 0, 0], [305, 55, 0, 0, 0, 0], [102, 124, 0, 0, 0, 0], [3, 0, 4, 130, 0, 4], [0, 0, 0, 116, 11, 127], [0, 232, 9, 423, 0, 0], [0, 42, 8, 429, 0, 0], [202, 148, 0, 0, 0, 0], [31, 141, 0, 0, 0, 0], [0, 68, 7, 754, 0, 0], [0, 124, 3, 226, 0, 0], [7, 0, 2, 76, 1, 12], [0, 0, 0, 25, 1, 79], [192, 582, 0, 0, 0, 0], [38, 859, 0, 1, 0, 0], [177, 257, 0, 0, 0, 0], [15, 325, 0, 0, 0, 0], [0, 130, 4, 88, 0, 0], [0, 213, 30, 566, 0, 0], [762, 759, 0, 0, 0, 0], [269, 96, 0, 0, 0, 0], [0, 0, 0, 292, 0, 242], [0, 0, 0, 118, 2, 296], [0, 0, 0, 91, 6, 389], [0, 0, 0, 47, 5, 7125], [0, 0, 0, 719, 5, 230], [0, 0, 0, 126, 1, 135], [375, 1516, 0, 2, 0, 0], [71, 1222, 0, 8, 0, 0], [193, 283, 0, 0, 0, 0], [109, 515, 0, 0, 0, 0], [0, 146, 1, 130, 0, 0], [0, 64, 1, 230, 0, 0], [0, 75, 13, 415, 0, 0], [0, 26, 2, 5, 0, 0], [0, 551, 14, 646, 0, 0], [0, 192, 2, 475, 0, 0], [108, 191, 0, 0, 0, 0], [31, 341, 0, 0, 0, 0], [2473, 342, 0, 2, 0, 0], [8, 24, 0, 0, 0, 0], [0, 126, 12, 162, 0, 0], [0, 87, 18, 404, 0, 0], [0, 4826, 10, 229, 0, 0], [0, 2300, 2, 330, 0, 0], [0, 1873, 1, 189, 0, 0], [0, 427, 1, 141, 0, 0], [1720, 143, 0, 2, 0, 0], [753, 199, 0, 0, 0, 0], [36, 23, 0, 0, 0, 0], [34, 224, 0, 1, 0, 0], [1116, 53, 0, 0, 0, 0], [127, 56, 0, 0, 0, 0], [191, 1163, 0, 0, 0, 0], [52, 1900, 0, 0, 0, 0], [352, 1130, 0, 0, 0, 0], [23, 386, 0, 2, 0, 0], [0, 147, 109, 28228, 19, 95], [0, 0, 0, 142, 1, 45], [0, 5, 1, 21, 0, 0], [18, 306, 4, 56, 0, 0], [151, 51, 0, 0, 0, 0], [38, 64, 0, 0, 0, 0], [22, 1, 0, 0, 0, 0], [16, 63, 0, 0, 0, 0], [652, 555, 0, 0, 0, 0], [110, 204, 0, 0, 0, 0], [109, 83, 0, 0, 0, 0], [68, 174, 0, 0, 0, 0], [430, 56, 0, 0, 0, 0], [215, 105, 0, 0, 0, 0], [74, 181, 0, 0, 0, 0], [34, 10, 0, 0, 0, 0], [0, 362, 9, 107, 0, 0], [46, 814, 3, 40, 0, 0], [29, 38, 0, 0, 0, 0], [17, 776, 3, 40, 0, 0], [0, 0, 0, 122, 0, 163], [0, 0, 0, 170, 0, 79], [0, 0, 0, 166, 2, 107], [0, 0, 0, 553, 3, 123], [8, 406, 0, 1, 0, 0], [36, 71, 0, 0, 0, 0], [14, 4, 0, 0, 0, 0], [4, 302, 4, 56, 0, 0], [0, 394, 7, 157, 0, 0], [0, 177, 1, 167, 0, 0], [0, 175, 2, 320, 0, 0], [0, 17, 0, 155, 0, 0], [0, 0, 0, 33, 1, 29], [0, 0, 0, 58, 5, 360], [0, 105, 3, 119, 0, 0], [0, 19, 0, 107, 0, 0], [99, 28, 0, 0, 0, 0], [103, 120, 0, 0, 0, 0], [718, 160, 0, 0, 0, 0], [35, 39, 0, 0, 0, 0], [31, 18, 0, 0, 0, 0], [321, 1112, 0, 0, 0, 0], [0, 955, 3, 127, 0, 0], [0, 515, 4, 175, 0, 0], [376, 77, 0, 0, 0, 0], [975, 11, 0, 0, 0, 0], [0, 0, 0, 1292, 5, 50], [0, 0, 0, 334, 0, 81], [0, 0, 0, 21, 0, 30], [0, 0, 0, 313, 0, 51], [269, 90, 0, 0, 0, 0], [167, 145, 0, 0, 0, 0], [7, 40, 0, 0, 0, 0], [95, 61, 0, 0, 0, 0], [59, 1343, 0, 26, 0, 0], [0, 102, 1, 39, 0, 0], [382, 18, 0, 0, 0, 0], [96, 44, 0, 0, 0, 0], [0, 169, 0, 20, 0, 0], [0, 128, 0, 79, 0, 0], [34, 110, 0, 1, 0, 0], [261, 40915, 9, 315, 0, 0], [145, 159, 0, 0, 0, 0], [85, 24, 0, 0, 0, 0], [0, 0, 0, 30, 2, 78], [0, 0, 0, 41, 1, 16], [43, 5, 0, 0, 0, 0], [340, 341, 0, 0, 0, 0], [26, 29, 0, 0, 0, 0], [692, 131, 0, 0, 0, 0], [0, 171, 1, 130, 0, 0], [0, 6, 0, 37, 0, 0], [107, 70, 0, 0, 0, 0], [38, 89, 0, 0, 0, 0], [0, 50, 0, 29, 0, 0], [0, 182, 9, 394, 0, 0], [5, 111, 0, 0, 0, 0], [26, 30, 0, 0, 0, 0], [8, 238, 0, 1, 0, 0], [159, 546, 0, 0, 0, 0], [99, 88, 0, 0, 0, 0], [3, 36, 0, 0, 0, 0], [0, 0, 0, 44, 5, 12], [0, 0, 0, 72, 6, 115], [0, 30, 0, 37, 0, 0], [0, 485, 4, 138, 0, 0], [0, 74, 3, 43, 0, 0], [0, 31, 0, 76, 0, 0], [182, 247, 0, 0, 0, 0], [158, 94, 0, 0, 0, 0], [0, 42, 2, 114, 0, 0], [0, 509, 12, 532, 0, 0], [445, 63, 0, 0, 0, 0], [21199, 212, 0, 1, 0, 0], [442, 46, 0, 0, 0, 0], [3, 17, 0, 0, 0, 0], [0, 87, 4, 62, 0, 0], [0, 39, 8, 100, 0, 0], [23, 7, 0, 0, 0, 0], [6, 31, 0, 0, 0, 0], [124, 637, 0, 0, 0, 0], [197, 475, 0, 0, 0, 0], [0, 101, 3, 39, 0, 0], [0, 29, 1, 49, 0, 0], [33, 1, 0, 0, 0, 0], [1, 9, 0, 0, 0, 0], [0, 38, 0, 92, 0, 0], [0, 471, 12, 440, 0, 0], [0, 0, 0, 33, 0, 31], [0, 0, 0, 109, 1, 14], [160, 368, 0, 0, 0, 0], [2, 82, 0, 0, 0, 0], [71, 1222, 0, 2, 0, 0], [0, 0, 0, 6, 0, 0], [376, 69, 0, 0, 0, 0], [0, 8, 0, 0, 0, 0], [135, 408, 0, 0, 0, 0], [62, 67, 0, 0, 0, 0], [16, 8, 0, 0, 0, 0], [6, 54, 0, 0, 0, 0], [1, 36, 0, 0, 0, 0], [35, 35, 0, 0, 0, 0], [421, 285, 0, 0, 0, 0], [231, 270, 0, 0, 0, 0], [0, 140, 0, 100, 0, 0], [0, 6, 1, 30, 0, 0], [0, 163, 0, 45, 0, 0], [0, 134, 6, 102, 0, 0], [90, 73, 0, 0, 0, 0], [103, 210, 0, 0, 0, 0], [22, 30, 0, 0, 0, 0], [105, 26, 0, 0, 0, 0], [51, 42, 0, 0, 0, 0], [45, 2, 0, 0, 0, 0], [1044, 27, 0, 0, 0, 0], [72, 26, 0, 0, 0, 0], [14, 21, 0, 0, 0, 0], [137, 30, 0, 0, 0, 0], [63, 66, 0, 0, 0, 0], [95, 28, 0, 0, 0, 0], [0, 22, 0, 42, 0, 0], [0, 118, 0, 58, 0, 0], [21, 8, 0, 0, 0, 0], [82, 202, 0, 0, 0, 0], [21, 10, 0, 0, 0, 0], [61, 192, 0, 0, 0, 0], [0, 475, 3, 194, 0, 0], [0, 0, 0, 10, 0, 0], [52, 5, 0, 0, 0, 0], [4, 11, 0, 0, 0, 0], [0, 3, 0, 10, 0, 0], [4, 299, 4, 46, 0, 0], [0, 70, 2, 24, 0, 0], [0, 64, 4, 78, 0, 0], [0, 0, 0, 33, 0, 17], [0, 0, 0, 0, 0, 14], [156, 3325, 0, 1, 0, 0], [105, 37590, 9, 314, 0, 0], [130, 1243, 0, 1, 0, 0], [26, 2082, 0, 0, 0, 0], [89, 403, 0, 0, 0, 0], [41, 840, 0, 1, 0, 0], [21, 18, 0, 0, 0, 0], [68, 385, 0, 0, 0, 0], [33, 859, 0, 0, 0, 0], [5, 0, 0, 1, 0, 0], [0, 242, 4, 42, 0, 0], [0, 120, 5, 65, 0, 0], [0, 25, 0, 36, 0, 0], [0, 95, 5, 29, 0, 0], [0, 49, 1, 222, 0, 0], [0, 15, 0, 8, 0, 0], [105, 34069, 7, 155, 0, 0], [0, 3521, 2, 159, 0, 0], [0, 2783, 1, 32, 0, 0], [0, 738, 1, 127, 0, 0], [21, 10, 0, 0, 0, 0], [139, 358, 0, 0, 0, 0], [0, 118, 7, 175, 0, 0], [0, 64, 2, 219, 0, 0], [0, 68, 6, 146, 0, 0], [0, 50, 1, 29, 0, 0], [66, 64, 0, 0, 0, 0], [41, 6, 0, 0, 0, 0], [41, 15, 0, 0, 0, 0], [25, 49, 0, 0, 0, 0], [0, 113, 1, 114, 0, 0], [0, 58, 0, 16, 0, 0], [21, 1180, 0, 26, 0, 0], [38, 163, 0, 0, 0, 0], [20, 12, 0, 0, 0, 0], [18, 151, 0, 0, 0, 0], [34, 2, 0, 0, 0, 0], [7, 13, 0, 0, 0, 0], [138, 138, 0, 0, 0, 0], [44, 109, 0, 0, 0, 0], [0, 15, 0, 0, 0, 0], [26, 15, 0, 0, 0, 0], [0, 1, 0, 25, 0, 0], [0, 28, 1, 24, 0, 0], [147, 627, 0, 0, 0, 0], [44, 536, 0, 0, 0, 0], [0, 872, 6, 341, 0, 0], [0, 5, 0, 15, 0, 0], [114, 15, 0, 0, 0, 0], [155, 81, 0, 0, 0, 0], [0, 0, 0, 85, 0, 16], [0, 0, 0, 85, 0, 63], [183, 168, 0, 0, 0, 0], [48, 102, 0, 0, 0, 0], [0, 109, 39, 2728, 0, 0], [0, 38, 70, 25500, 19, 95], [0, 67, 7, 280, 0, 0], [0, 42, 32, 2448, 0, 0], [0, 11, 0, 0, 0, 0], [0, 56, 7, 280, 0, 0], [54, 306, 0, 0, 0, 0], [105, 240, 0, 0, 0, 0], [27, 61, 0, 1, 0, 0], [7, 163, 0, 0, 0, 0]];

    var findMax = function(nums) {
        var index = 0;
        for (var i = 0; i < nums.length; i++) {
            index = nums[i] > nums[index] ? i : index;
        }
        return index;
    };

    this.predict = function(features, node) {
        node = (typeof node !== 'undefined') ? node : 0;
        if (this.thresholds[node] != -2) {
            if (features[this.indices[node]] <= this.thresholds[node]) {
                return this.predict(features, this.lChilds[node]);
            } else {
                return this.predict(features, this.rChilds[node]);
            }
        }
        return findMax(this.classes[node]);
    };

};

export default DecisionTreeClassifier;